{
  "layers": [
    {
      "opacity": 1.0, 
      "name": "Base Weights", 
      "enabled": true, 
      "mask": [], 
      "influences": [
        {
          "index": 7, 
          "weights": [1.0, 1.0, 1.0, 1.0, 1.0, 1.0, 1.0, 1.0, 1.0, 1.0, 1.0, 1.0, 1.0, 1.0, 1.0, 1.0, 1.0, 1.0, 1.0, 1.0, 1.0, 1.0, 1.0, 1.0, 1.0, 1.0, 1.0, 1.0, 1.0, 1.0, 1.0, 1.0, 1.0, 1.0, 1.0, 1.0, 1.0, 1.0, 1.0, 1.0, 1.0, 1.0, 1.0, 1.0, 1.0, 1.0, 1.0, 1.0, 1.0, 1.0, 1.0, 1.0, 1.0, 1.0, 1.0, 1.0, 1.0, 1.0, 1.0, 1.0, 1.0, 1.0, 1.0, 1.0, 1.0, 1.0, 1.0, 1.0, 1.0, 1.0, 1.0, 1.0, 1.0, 1.0, 1.0, 1.0, 1.0, 1.0, 1.0, 1.0, 1.0, 1.0, 1.0, 1.0, 1.0, 1.0, 1.0, 1.0, 1.0, 1.0, 1.0, 1.0, 1.0, 1.0, 1.0, 1.0, 1.0, 1.0, 1.0, 1.0, 1.0, 1.0, 1.0, 1.0, 1.0, 1.0, 1.0, 1.0, 1.0, 1.0, 1.0, 1.0, 1.0, 1.0, 1.0, 1.0, 1.0, 1.0, 1.0, 1.0, 1.0, 1.0, 1.0, 1.0, 1.0, 1.0, 1.0, 1.0, 1.0, 1.0, 1.0, 1.0, 1.0, 1.0, 1.0, 1.0, 1.0, 1.0, 1.0, 1.0, 1.0, 1.0, 1.0, 1.0, 1.0, 1.0, 1.0, 1.0, 1.0, 1.0, 1.0, 1.0, 1.0, 1.0, 1.0, 1.0, 1.0, 1.0, 1.0, 1.0, 1.0, 1.0, 1.0, 1.0, 1.0, 1.0, 1.0, 1.0, 1.0, 1.0, 1.0, 1.0, 1.0, 1.0, 1.0, 1.0, 1.0, 1.0, 1.0, 1.0, 1.0, 1.0, 1.0, 1.0, 1.0, 1.0, 1.0, 1.0, 1.0, 1.0, 1.0, 1.0, 1.0, 1.0, 1.0, 1.0, 1.0, 1.0, 1.0, 1.0, 1.0, 1.0, 1.0, 1.0, 1.0, 1.0, 1.0, 1.0, 1.0, 1.0, 1.0, 1.0, 1.0, 1.0, 1.0, 1.0, 1.0, 1.0, 1.0, 1.0, 1.0, 1.0, 1.0, 1.0, 1.0, 1.0, 1.0, 1.0, 1.0, 1.0, 1.0, 1.0, 1.0, 1.0, 1.0, 1.0, 1.0, 1.0, 1.0, 1.0, 1.0, 1.0, 1.0, 1.0, 1.0, 1.0, 1.0, 1.0, 1.0, 1.0, 1.0, 1.0, 1.0, 1.0, 1.0, 1.0, 1.0, 1.0, 1.0, 1.0, 1.0, 1.0, 1.0, 1.0, 1.0, 1.0, 1.0, 1.0, 1.0, 1.0, 1.0, 1.0, 1.0, 1.0, 1.0, 1.0, 1.0, 1.0, 1.0, 1.0, 1.0, 1.0, 1.0, 1.0, 1.0, 1.0, 1.0, 1.0, 1.0, 1.0, 1.0, 1.0, 1.0, 1.0, 1.0, 1.0, 1.0, 1.0, 1.0, 1.0, 1.0, 1.0, 1.0, 1.0, 1.0, 1.0, 1.0, 1.0, 1.0, 1.0, 1.0, 1.0, 1.0, 1.0, 1.0, 1.0, 1.0, 1.0, 1.0, 1.0, 1.0, 1.0, 1.0, 1.0, 1.0, 1.0, 1.0, 1.0, 1.0, 1.0, 1.0, 1.0, 1.0, 1.0, 1.0, 1.0, 1.0, 1.0, 1.0, 1.0, 1.0, 1.0, 1.0, 1.0, 1.0, 1.0, 1.0, 1.0, 1.0, 1.0, 1.0, 1.0, 1.0, 1.0, 1.0, 1.0, 1.0, 1.0, 1.0, 1.0, 1.0, 1.0, 1.0, 1.0, 1.0, 1.0, 1.0, 1.0, 1.0, 1.0, 1.0, 1.0, 1.0, 1.0, 1.0, 1.0, 1.0, 1.0, 1.0, 1.0, 1.0, 1.0, 1.0, 1.0, 1.0, 1.0, 1.0, 1.0, 1.0, 1.0, 1.0, 1.0, 1.0, 1.0, 1.0, 1.0, 1.0, 1.0, 1.0, 1.0, 1.0, 1.0, 1.0, 1.0, 1.0, 1.0, 1.0, 1.0, 1.0, 1.0, 1.0, 1.0, 1.0, 1.0, 1.0, 1.0, 1.0, 1.0, 1.0, 1.0, 1.0, 1.0, 1.0, 1.0, 1.0, 1.0, 1.0, 1.0, 1.0, 1.0, 1.0, 1.0, 1.0, 1.0, 1.0, 1.0, 1.0, 1.0, 1.0, 1.0, 1.0, 1.0, 1.0, 1.0, 1.0, 1.0, 1.0, 1.0, 1.0, 1.0, 1.0, 1.0, 1.0, 1.0, 1.0, 1.0, 1.0, 1.0, 1.0, 1.0, 1.0, 1.0, 1.0, 1.0, 1.0, 1.0, 1.0, 1.0, 1.0, 1.0, 1.0, 1.0, 1.0, 1.0, 1.0, 1.0, 1.0, 1.0, 1.0, 1.0, 1.0, 1.0, 1.0, 1.0, 1.0, 1.0, 1.0, 1.0, 1.0, 1.0, 1.0, 1.0, 1.0, 1.0, 1.0, 1.0, 1.0, 1.0, 1.0, 1.0, 1.0, 1.0, 1.0, 1.0, 1.0, 1.0, 1.0, 1.0, 1.0, 1.0, 1.0, 1.0, 1.0, 1.0, 1.0, 1.0, 1.0, 1.0, 1.0, 1.0, 1.0, 1.0, 1.0, 1.0, 1.0, 1.0, 1.0, 1.0, 1.0, 1.0, 1.0, 1.0, 1.0, 1.0, 1.0, 1.0, 1.0, 1.0, 1.0, 1.0, 1.0, 1.0, 1.0, 1.0, 1.0, 1.0, 1.0, 1.0, 1.0, 1.0, 1.0, 1.0, 1.0, 1.0, 1.0, 1.0, 1.0, 1.0, 1.0, 1.0, 1.0, 1.0, 1.0, 1.0, 1.0, 1.0, 1.0, 1.0, 1.0, 1.0, 1.0, 1.0, 1.0, 1.0, 1.0, 1.0, 1.0, 1.0, 1.0, 1.0, 1.0, 1.0, 1.0, 1.0, 1.0, 1.0, 1.0, 1.0, 1.0, 1.0, 1.0, 1.0, 1.0, 1.0, 1.0, 1.0, 1.0, 1.0, 1.0, 1.0, 1.0, 1.0, 1.0, 1.0, 1.0, 1.0, 1.0, 1.0, 1.0, 1.0, 1.0, 1.0, 1.0, 1.0, 1.0, 1.0, 1.0, 1.0, 1.0, 1.0, 1.0, 1.0, 1.0, 1.0, 1.0, 1.0, 1.0, 1.0, 1.0, 1.0, 1.0, 1.0, 1.0, 1.0, 1.0, 1.0, 1.0, 1.0, 1.0, 1.0, 1.0, 1.0, 1.0, 1.0, 1.0, 1.0, 1.0, 1.0, 1.0, 1.0, 1.0, 1.0, 1.0, 1.0, 1.0, 1.0, 1.0, 1.0, 1.0, 1.0, 1.0, 1.0, 1.0, 1.0, 1.0, 1.0, 1.0, 1.0, 1.0, 1.0, 1.0, 1.0, 1.0, 1.0, 1.0, 1.0, 1.0, 1.0, 1.0, 1.0, 1.0, 1.0, 1.0, 1.0, 1.0, 1.0, 1.0, 1.0, 1.0, 1.0, 1.0, 1.0, 1.0, 1.0, 1.0, 1.0, 1.0, 1.0, 1.0, 1.0, 1.0, 1.0, 1.0, 1.0, 1.0, 1.0, 1.0, 1.0, 1.0, 1.0, 1.0, 1.0, 1.0, 1.0, 1.0, 1.0, 1.0, 1.0, 1.0, 1.0, 1.0, 1.0, 1.0, 1.0, 1.0, 1.0, 1.0, 1.0, 1.0, 1.0, 1.0, 1.0, 1.0, 1.0, 1.0, 1.0, 1.0, 1.0, 1.0, 1.0, 1.0, 1.0, 1.0, 1.0, 1.0, 1.0, 1.0, 1.0, 1.0, 1.0, 1.0, 1.0, 1.0, 1.0, 1.0, 1.0, 1.0, 1.0, 1.0, 1.0, 1.0, 1.0, 1.0, 1.0, 1.0, 1.0, 1.0, 1.0, 1.0, 1.0, 1.0, 1.0, 1.0, 1.0, 1.0, 1.0, 1.0, 1.0, 1.0, 1.0, 1.0, 1.0, 1.0, 1.0, 1.0, 1.0, 1.0, 1.0, 1.0, 1.0, 1.0, 1.0, 1.0, 1.0, 1.0, 1.0, 1.0, 1.0, 1.0, 1.0, 1.0, 1.0, 1.0, 1.0, 1.0, 1.0, 1.0, 1.0, 1.0, 1.0, 1.0, 1.0, 1.0, 1.0, 1.0, 1.0, 1.0, 1.0, 1.0, 1.0, 1.0, 1.0, 1.0, 1.0, 1.0, 1.0, 1.0, 1.0, 1.0, 1.0, 1.0, 1.0, 1.0, 1.0, 1.0, 1.0, 1.0, 1.0, 1.0, 1.0, 1.0, 1.0, 1.0, 1.0, 1.0, 1.0, 1.0, 1.0, 1.0, 1.0, 1.0, 1.0, 1.0, 1.0, 1.0, 1.0, 1.0, 1.0, 1.0, 1.0, 1.0, 1.0, 1.0, 1.0, 1.0, 1.0, 1.0, 1.0, 1.0, 1.0, 1.0, 1.0, 1.0, 1.0, 1.0, 1.0, 1.0, 1.0, 1.0, 1.0, 1.0, 1.0, 1.0, 1.0, 1.0, 1.0, 1.0, 1.0, 1.0, 1.0, 1.0, 1.0, 1.0, 1.0, 1.0, 1.0, 1.0, 1.0, 1.0, 1.0, 1.0, 1.0, 1.0, 1.0, 1.0, 1.0, 1.0, 1.0, 1.0, 1.0, 1.0, 1.0, 1.0, 1.0, 1.0, 1.0, 1.0, 1.0, 1.0, 1.0, 1.0, 1.0, 1.0, 1.0, 1.0, 1.0, 1.0, 1.0, 1.0, 1.0, 1.0, 1.0, 1.0, 1.0, 1.0, 1.0, 1.0, 1.0, 1.0, 1.0, 1.0, 1.0, 1.0, 1.0], 
          "name": "|root|c_pelvis_result_jnt|c_spineA_result_jnt|c_spineB_result_jnt|c_spineC_result_jnt|c_spineEnd_result_jnt|c_neckA_result_jnt|c_neckB_result_jnt|c_headA_result_jnt"
        }], 
      "dqWeights": []
    }], 
  "influences": {
    "32": {
      "path": "|root|c_pelvis_result_jnt|c_spineA_result_jnt|c_spineB_result_jnt|c_spineC_result_jnt|c_spineEnd_result_jnt|c_neckA_result_jnt|c_neckB_result_jnt|c_headA_result_jnt|c_eyebrow_result_jnt", 
      "pivot": [0.050451608345898874, 203.9079740689305, 12.468980689771858], 
      "index": 32
    }, 
    "33": {
      "path": "|root|c_pelvis_result_jnt|c_spineA_result_jnt|c_spineB_result_jnt|c_spineC_result_jnt|c_spineEnd_result_jnt|c_neckA_result_jnt|c_neckB_result_jnt|c_headA_result_jnt|l_eyebrow_result_jnt", 
      "pivot": [3.040256896759736, 205.02337363163733, 12.622347590079988], 
      "index": 33
    }, 
    "35": {
      "path": "|root|c_pelvis_result_jnt|c_spineA_result_jnt|c_spineB_result_jnt|c_spineC_result_jnt|c_spineEnd_result_jnt|c_neckA_result_jnt|c_neckB_result_jnt|c_headA_result_jnt|r_eyeA_result_jnt", 
      "pivot": [-5.199170000000002, 201.46500000000006, 7.001620000000002], 
      "index": 35
    }, 
    "38": {
      "path": "|root|c_pelvis_result_jnt|c_spineA_result_jnt|c_spineB_result_jnt|c_spineC_result_jnt|c_spineEnd_result_jnt|c_neckA_result_jnt|c_neckB_result_jnt|c_headA_result_jnt|r_eyebrow_result_jnt", 
      "pivot": [-3.040259999999996, 205.02300000000002, 12.622300000000012], 
      "index": 38
    }, 
    "7": {
      "path": "|root|c_pelvis_result_jnt|c_spineA_result_jnt|c_spineB_result_jnt|c_spineC_result_jnt|c_spineEnd_result_jnt|c_neckA_result_jnt|c_neckB_result_jnt|c_headA_result_jnt", 
      "pivot": [-8.167771655871314e-14, 187.405303960101, -6.017386776572576], 
      "index": 7
    }, 
    "8": {
      "path": "|root|c_pelvis_result_jnt|c_spineA_result_jnt|c_spineB_result_jnt|c_spineC_result_jnt|c_spineEnd_result_jnt|c_neckA_result_jnt|c_neckB_result_jnt|c_headA_result_jnt|c_headLast_result_jnt", 
      "pivot": [-1.2758810080644337e-13, 217.11692094191844, -5.689307439610048], 
      "index": 8
    }, 
    "9": {
      "path": "|root|c_pelvis_result_jnt|c_spineA_result_jnt|c_spineB_result_jnt|c_spineC_result_jnt|c_spineEnd_result_jnt|c_neckA_result_jnt|c_neckB_result_jnt|c_headA_result_jnt|l_eyeA_result_jnt", 
      "pivot": [5.199171066283571, 201.4651489257801, 7.001619338989271], 
      "index": 9
    }, 
    "11": {
      "path": "|root|c_pelvis_result_jnt|c_spineA_result_jnt|c_spineB_result_jnt|c_spineC_result_jnt|c_spineEnd_result_jnt|c_neckA_result_jnt|c_neckB_result_jnt|c_headA_result_jnt|c_mouthHelper_result_jnt", 
      "pivot": [-5.325697440650161e-14, 194.36239357606445, -4.127412482751819], 
      "index": 11
    }, 
    "12": {
      "path": "|root|c_pelvis_result_jnt|c_spineA_result_jnt|c_spineB_result_jnt|c_spineC_result_jnt|c_spineEnd_result_jnt|c_neckA_result_jnt|c_neckB_result_jnt|c_headA_result_jnt|c_mouthHelper_result_jnt|c_jawA_result_jnt", 
      "pivot": [-5.142051880471922e-14, 193.16783411565353, -3.453012188992974], 
      "index": 12
    }
  }, 
  "meshInfo": {
    "verts": [1.3925689458847046, 213.24559020996094, 7.869296073913574, 2.025918960571289, 213.30897521972656, 7.854004859924316, 1.7813780307769775, 215.40444946289062, 9.621994018554688, 0.40717101097106934, 214.97793579101562, 9.765267372131348, 2.1401278972625732, 217.76817321777344, 9.23345947265625, -0.06221669912338257, 217.86590576171875, 9.912232398986816, 1.699429988861084, 213.27713012695312, 7.8609514236450195, 1.0711559057235718, 215.1880340576172, 9.686270713806152, 0.9502246379852295, 217.80577087402344, 9.33632755279541, 1.2834149599075317, 219.56431579589844, 7.9500322341918945, 0.5615249872207642, 219.7305145263672, 8.238937377929688, 2.7171878814697266, 219.44912719726562, 7.2128520011901855, 2.5279181003570557, 220.4601287841797, 5.347492218017578, 2.0889480113983154, 220.86610412597656, 5.177183151245117, 3.3614890575408936, 219.91554260253906, 5.1269731521606445, 3.7346880435943604, 220.83534240722656, 1.9030530452728271, 3.149517059326172, 221.4770965576172, 1.960880994796753, 4.207371234893799, 220.31991577148438, 1.873615026473999, 2.6794989109039307, 220.32603454589844, -6.6067280769348145, 2.000380039215088, 221.22645568847656, -5.786348819732666, 3.2469329833984375, 221.39163208007812, -1.7348730564117432, 4.203183174133301, 220.4122314453125, -1.9704209566116333, 2.587730646133423, 220.90928649902344, -6.146413803100586, 3.70072865486145, 220.96900939941406, -1.8474011421203613, 1.1256752014160156, 220.11138916015625, -8.52750015258789, 0.7759016752243042, 220.3922119140625, -8.106093406677246, 1.4699914455413818, 219.54669189453125, -8.640870094299316, -0.06541046500205994, 218.19342041015625, -10.483823776245117, -0.6229938268661499, 218.81787109375, -9.830129623413086, -0.34477850794792175, 218.36349487304688, -10.281323432922363, 1.2710241079330444, 221.1757049560547, -4.68543815612793, 0.6060702800750732, 220.36529541015625, -7.561744689941406, 0.32036399841308594, 221.38323974609375, -4.950643062591553, 0.005204020068049431, 220.21163940429688, -7.54213285446167, 1.6175220012664795, 221.2542724609375, -1.4821619987487793, 0.2686940133571625, 221.4272003173828, -1.2748500108718872, 1.2121490240097046, 221.25807189941406, 1.9845860004425049, -0.16786299645900726, 220.75973510742188, 5.109344005584717, -0.7028779983520508, 221.03184509277344, 1.5420140027999878, -1.8870315551757812, 220.47752380371094, 3.962200880050659, -1.0461570024490356, 219.38308715820312, 7.9286417961120605, -1.0400209426879883, 217.518798828125, 9.339421272277832, -0.1809529960155487, 214.909912109375, 9.525760650634766, 0.761867344379425, 213.263671875, 8.028919219970703, 0.27745288610458374, 213.19778442382812, 7.974024772644043, -0.8448479771614075, 214.73487854003906, 9.374537467956543, -2.2167999744415283, 217.12527465820312, 9.548373222351074, -2.9934279918670654, 219.1317138671875, 7.7950239181518555, 3.0890724658966064, 219.7209930419922, 6.018249034881592, 2.0636045932769775, 220.2000732421875, 6.525838375091553, 1.465780258178711, 220.54376220703125, 6.561128616333008, -0.5808551907539368, 220.35928344726562, 6.376190185546875, -2.655935525894165, 220.13482666015625, 5.729242324829102, -4.336058616638184, 218.24803161621094, 4.683778762817383, -4.342447757720947, 217.5737762451172, 6.985377788543701, -3.0223560333251953, 215.61634826660156, 8.799792289733887, -3.714933395385742, 218.653076171875, 2.3109471797943115, -2.1862120628356934, 219.46969604492188, 0.05662378668785095, -1.1053147315979004, 220.17909240722656, -1.917519450187683, -0.6959013938903809, 220.40872192382812, -4.803635597229004, -0.618565022945404, 219.84938049316406, -7.245563983917236, -1.1182420253753662, 218.75721740722656, -9.63083267211914, -1.6908299922943115, 214.39544677734375, 8.894515037536621, -0.43676266074180603, 213.1542510986328, 7.8466315269470215, -3.426058053970337, 219.923828125, -0.23422999680042267, -2.228276014328003, 220.40066528320312, -2.7199289798736572, -4.924629211425781, 219.24098205566406, 2.431696891784668, -5.437410831451416, 218.5855712890625, 4.777891159057617, -5.2157487869262695, 217.6133575439453, 6.867970943450928, -3.6307599544525146, 215.4854736328125, 8.699908256530762, -2.0285630226135254, 214.17428588867188, 8.650424003601074, -0.8295469880104065, 213.10130310058594, 7.710140228271484, -1.6108955144882202, 212.978515625, 7.265035152435303, -2.415816068649292, 213.99609375, 8.523421287536621, -4.22810697555542, 215.16844177246094, 8.682716369628906, -6.496431827545166, 217.37635803222656, 6.900059223175049, -7.386580944061279, 218.66273498535156, 4.299952983856201, -6.7173638343811035, 219.69970703125, 1.9461909532546997, -4.818472385406494, 220.333740234375, -0.9276527762413025, -3.265125036239624, 220.58935546875, -3.162529945373535, -1.6469429731369019, 220.55445861816406, -5.202606201171875, -2.4149961471557617, 220.58311462402344, -5.55870246887207, -1.462270975112915, 220.12130737304688, -7.299222946166992, -2.6202187538146973, 220.33087158203125, -7.394784927368164, -2.197329044342041, 219.2828369140625, -9.830735206604004, -3.085472345352173, 219.56993103027344, -9.905783653259277, -2.1563720703125, 217.46859741210938, -12.782750129699707, -3.269099473953247, 217.49964904785156, -12.604681968688965, -2.731377124786377, 217.59820556640625, -12.749589920043945, -1.7316094636917114, 217.374755859375, -12.874454498291016, 2.436840057373047, 215.1989288330078, 9.078298568725586, 2.3260767459869385, 213.32774353027344, 7.801303386688232, 2.6919939517974854, 216.874267578125, 8.723895072937012, 3.2002480030059814, 218.55580139160156, 7.109377861022949, 3.5126869678497314, 218.89859008789062, 5.994166851043701, 3.780147075653076, 219.028564453125, 5.055829048156738, 4.508971214294434, 219.52072143554688, 1.7546190023422241, 4.509654998779297, 219.89309692382812, -1.887110948562622, 3.1094789505004883, 219.79542541503906, -6.621593952178955, 2.0007450580596924, 219.37403869628906, -8.681262016296387, 0.35803160071372986, 218.38087463378906, -10.646378517150879, 2.7737739086151123, 215.2329559326172, 9.076471328735352, 2.604299783706665, 213.35101318359375, 7.737680912017822, 3.454332113265991, 216.8425750732422, 8.796897888183594, 4.257777214050293, 218.2330322265625, 7.476222038269043, 4.4540629386901855, 218.6915740966797, 6.559603214263916, 4.684820175170898, 218.87171936035156, 5.600741386413574, 5.224412441253662, 219.4398956298828, 2.0074868202209473, 4.982944011688232, 219.79071044921875, -1.585914969444275, 4.109547138214111, 219.96551513671875, -6.261819839477539, 2.6498305797576904, 219.4970703125, -8.664624214172363, 1.1287667751312256, 218.4469757080078, -10.835164070129395, 3.091154098510742, 215.04957580566406, 8.993659973144531, 2.798008680343628, 213.3495330810547, 7.639857769012451, 3.8489480018615723, 216.5884552001953, 8.692252159118652, 4.704506874084473, 217.89010620117188, 7.230635643005371, 4.944025993347168, 218.15682983398438, 6.310525894165039, 5.231998920440674, 218.33090209960938, 5.156911849975586, 5.951320171356201, 219.02700805664062, 1.6267130374908447, 5.629313945770264, 219.63238525390625, -1.4497369527816772, 4.41071891784668, 219.7826385498047, -6.217892169952393, 3.068627119064331, 219.50025939941406, -8.641048431396484, 1.5358928442001343, 218.3282012939453, -10.915617942810059, 4.014587879180908, 216.1885223388672, 8.788806915283203, 3.4704041481018066, 214.78872680664062, 8.968851089477539, 3.002706527709961, 213.38894653320312, 7.620447158813477, 5.147305011749268, 217.73387145996094, 7.44651985168457, 5.653205871582031, 218.09097290039062, 6.605754852294922, 6.146207809448242, 218.41146850585938, 5.687594890594482, 6.926206588745117, 219.1156463623047, 1.6640243530273438, 6.236781120300293, 219.6755828857422, -1.2629504203796387, 4.593408107757568, 219.33668518066406, -6.455864906311035, 3.3764472007751465, 219.17160034179688, -9.16042423248291, 4.1098737716674805, 214.29278564453125, 8.213998794555664, 3.6094014644622803, 213.40823364257812, 7.204404354095459, 4.7821044921875, 214.97434997558594, 8.331878662109375, 4.397099018096924, 215.8227081298828, 9.087196350097656, 5.687967777252197, 215.64610290527344, 8.02311897277832, 5.571253776550293, 216.4722137451172, 8.532530784606934, 6.501200199127197, 216.0920867919922, 7.428525924682617, 6.556004047393799, 216.8013458251953, 7.6706461906433105, 7.4345879554748535, 216.38885498046875, 6.3086090087890625, 7.5097174644470215, 217.08226013183594, 6.396391868591309, 8.551590919494629, 216.60653686523438, 3.6261279582977295, 8.722569465637207, 217.32420349121094, 3.221437931060791, 8.557429313659668, 217.35765075683594, 0.9359261989593506, 8.111174583435059, 218.59683227539062, 0.27406811714172363, 4.2157158851623535, 216.034912109375, 8.935320854187012, 5.412868976593018, 217.0203399658203, 7.858626842498779, 6.239884853363037, 217.34373474121094, 6.962299823760986, 6.975772857666016, 217.67050170898438, 5.743105888366699, 7.828435897827148, 218.30630493164062, 2.112740993499756, 6.99857759475708, 219.177978515625, -0.7491616010665894, 4.897304534912109, 219.27896118164062, -6.245758056640625, 5.43923282623291, 219.30430603027344, -6.011878967285156, 5.2965192794799805, 219.2659454345703, -5.934818267822266, -2.7403271198272705, 220.6421661376953, -4.564609527587891, -1.8904324769973755, 220.5883331298828, -4.108761310577393, -0.9013617634773254, 220.389404296875, -3.5377347469329834, 0.2707397937774658, 221.49346923828125, -3.345069169998169, 1.4234447479248047, 221.23597717285156, -3.2842252254486084, 2.667529821395874, 221.3926239013672, -4.050146102905273, 3.201932907104492, 221.02978515625, -4.300500869750977, 3.5428969860076904, 220.49542236328125, -4.640222072601318, 3.8360695838928223, 220.07325744628906, -4.586531162261963, 4.527320861816406, 220.1060333251953, -4.219173431396484, 5.079931259155273, 219.96533203125, -4.162275791168213, 5.357668876647949, 219.81573486328125, -4.316681861877441, 5.911250114440918, 219.6098175048828, -3.8969900608062744, 6.459730625152588, 219.29055786132812, -3.553997755050659, 6.882540225982666, 219.0837860107422, -3.138878345489502, 5.734695911407471, 219.45274353027344, -6.122894763946533, 7.339345932006836, 219.1889190673828, -3.5785789489746094, 8.684203147888184, 216.70755004882812, 1.3179925680160522, 8.536073684692383, 215.9449462890625, 3.601602077484131, 7.22465181350708, 215.5230255126953, 6.3751678466796875, 6.617206573486328, 215.2055206298828, 6.9623260498046875, 5.895528793334961, 214.79473876953125, 7.435091495513916, 5.230885028839111, 214.3798828125, 7.683895111083984, 4.761951923370361, 213.98526000976562, 7.6465678215026855, 4.250821590423584, 213.38229370117188, 6.653968811035156, 7.850580215454102, 215.6737823486328, 5.329086780548096, 7.989917755126953, 216.46107482910156, 5.298779487609863, 8.098406791687012, 217.23086547851562, 5.192776679992676, 7.431646347045898, 218.08255004882812, 4.367791652679443, 6.464876651763916, 218.73097229003906, 4.112260818481445, 5.497679710388184, 218.55148315429688, 3.7530925273895264, 4.899406433105469, 219.09996032714844, 4.1859588623046875, 4.052633285522461, 219.20196533203125, 3.7485179901123047, 3.725987672805786, 220.096923828125, 3.856121301651001, 3.049311876296997, 220.65855407714844, 4.011805534362793, 2.526700258255005, 221.16493225097656, 3.926028251647949, 0.373615026473999, 220.97332763671875, 3.8802378177642822, -1.4221879243850708, 220.69964599609375, 3.0084784030914307, -3.111895799636841, 218.9713134765625, 1.4219861030578613, -4.355197906494141, 219.43202209472656, 1.3473223447799683, -5.995163917541504, 220.0133514404297, 0.8375123143196106, 8.728504180908203, 215.15550231933594, 0.8979840278625488, 9.033513069152832, 216.394775390625, -0.007921059615910053, 8.542353630065918, 215.56817626953125, 2.2983107566833496, 8.61889934539795, 216.5592041015625, 0.6530202627182007, 8.101212501525879, 218.68601989746094, -4.311644077301025, -2.902628183364868, 220.64364624023438, -4.0784687995910645, -2.01741099357605, 220.53665161132812, -3.57727313041687, -0.9647121429443359, 220.2670440673828, -2.924746513366699, 0.25468480587005615, 221.51998901367188, -2.5560219287872314, 1.497857689857483, 221.2566375732422, -2.5977537631988525, 2.994197368621826, 221.45045471191406, -3.1397855281829834, 3.439213514328003, 221.0525360107422, -3.3751983642578125, 3.840985059738159, 220.4974822998047, -3.6332626342773438, 4.126168727874756, 220.06517028808594, -3.5620856285095215, 4.704668998718262, 220.01876831054688, -3.213512420654297, 5.2957329750061035, 219.8705596923828, -3.1273560523986816, 5.689087867736816, 219.75296020507812, -3.153475522994995, 6.400506496429443, 219.57249450683594, -2.708789825439453, 7.129086971282959, 219.0653076171875, -2.1044187545776367, 7.709270477294922, 218.57540893554688, -1.5995997190475464, 8.08777904510498, 218.4580841064453, -1.6730997562408447, 8.802626609802246, 218.246826171875, -2.3428268432617188, 9.482242584228516, 217.89561462402344, -2.6126809120178223, 9.402050971984863, 218.17623901367188, -4.425830841064453, 9.580830574035645, 217.63027954101562, -4.456602573394775, 9.62566089630127, 217.068359375, -2.8475468158721924, 9.231735229492188, 215.7696533203125, -0.9246264100074768, 8.964054107666016, 214.885986328125, -0.13635408878326416, 9.120620727539062, 215.5605010986328, -1.1832369565963745, 9.578070640563965, 216.8939208984375, -2.9762539863586426, 9.545256614685059, 217.39480590820312, -4.529557704925537, 9.11683464050293, 214.82432556152344, -0.7913129925727844, 9.093509674072266, 217.90853881835938, -7.13602876663208, 8.91339111328125, 218.3673858642578, -7.017786979675293, 9.091941833496094, 217.65896606445312, -7.134145259857178, 7.513481616973877, 217.6449432373047, -10.022825241088867, 7.3285064697265625, 218.0558624267578, -9.942246437072754, 7.671009540557861, 217.44488525390625, -9.947023391723633, 5.712176322937012, 216.49989318847656, -12.708964347839355, 5.483388900756836, 216.6986846923828, -12.709419250488281, 6.794371128082275, 218.942138671875, -7.301914691925049, 5.954820156097412, 218.6941375732422, -9.244119644165039, 5.092790126800537, 217.0185089111328, -12.606139183044434, 5.9196696281433105, 216.41403198242188, -12.766548156738281, 4.933870792388916, 219.46810913085938, -7.97175407409668, 4.792855739593506, 217.2934112548828, -12.459344863891602, 4.7861714363098145, 219.44068908691406, -7.981345176696777, 4.567528247833252, 219.35353088378906, -8.037776947021484, 4.230846881866455, 219.22958374023438, -8.205562591552734, 4.6303887367248535, 217.51190185546875, -12.287501335144043, 4.2549028396606445, 217.48477172851562, -12.232611656188965, 3.64619517326355, 217.74993896484375, -12.399368286132812, 3.018557071685791, 218.04641723632812, -11.996604919433594, 2.000887393951416, 218.3185272216797, -11.475945472717285, 2.2607343196868896, 217.89590454101562, -12.206740379333496, 2.920217514038086, 216.85430908203125, -13.583355903625488, 2.0314924716949463, 216.92147827148438, -13.575583457946777, 3.82991886138916, 216.8363800048828, -13.829379081726074, 3.2726099491119385, 215.2128448486328, -15.35986042022705, 2.226494550704956, 215.35205078125, -15.450220108032227, 4.230907440185547, 214.3939971923828, -15.996978759765625, 3.9181160926818848, 212.9264678955078, -17.113876342773438, 3.238034725189209, 213.25439453125, -16.829893112182617, 2.6397745609283447, 213.43006896972656, -16.91054916381836, 2.402754545211792, 210.7379913330078, -18.689380645751953, 1.7699025869369507, 210.99598693847656, -18.794967651367188, 2.773866653442383, 210.4491424560547, -18.42057991027832, 1.5207014083862305, 213.69483947753906, -16.59593391418457, 1.0488066673278809, 211.0283966064453, -18.821304321289062, 1.4091426134109497, 215.223876953125, -14.956677436828613, 1.3947019577026367, 217.0244140625, -13.344226837158203, 9.480203628540039, 214.07139587402344, -3.5203499794006348, 9.575458526611328, 214.64222717285156, -3.742975950241089, 9.57845687866211, 215.2365264892578, -4.471016883850098, 9.487122535705566, 215.79307556152344, -5.3622260093688965, 9.199520111083984, 216.52276611328125, -7.379258155822754, 8.41706371307373, 216.92257690429688, -9.476719856262207, 6.430248737335205, 216.49659729003906, -12.937994003295898, 6.9688639640808105, 216.3240509033203, -13.250256538391113, 9.29528522491455, 216.62535095214844, -10.325143814086914, 9.919565200805664, 216.24830627441406, -7.898377895355225, 9.797924995422363, 215.2370147705078, -5.703176975250244, 9.705106735229492, 214.81243896484375, -5.0464701652526855, 9.628349304199219, 214.30210876464844, -4.401580810546875, 9.566617012023926, 213.96311950683594, -4.161470890045166, 9.670782089233398, 213.80258178710938, -4.748867988586426, 9.793098449707031, 214.222412109375, -5.042416095733643, 10.004692077636719, 214.65029907226562, -5.7188191413879395, 10.290199279785156, 214.83465576171875, -6.4695305824279785, 10.731932640075684, 214.93649291992188, -8.05539608001709, 10.530059814453125, 215.1901092529297, -10.433083534240723, 7.961846828460693, 215.05291748046875, -13.750280380249023, 6.670846939086914, 214.38182067871094, -14.806127548217773, 6.122955322265625, 215.36294555664062, -14.527989387512207, 5.746699810028076, 213.45773315429688, -15.774100303649902, 5.556772708892822, 213.76412963867188, -15.824625968933105, 4.155081748962402, 216.51756286621094, -13.592124938964844, 5.675256252288818, 215.49351501464844, -14.351763725280762, 5.408682823181152, 215.50694274902344, -14.132017135620117, 5.219807147979736, 215.5316619873047, -14.042941093444824, 5.100682258605957, 215.61798095703125, -13.968317031860352, 4.902971267700195, 215.76319885253906, -13.865442276000977, 0.9456291198730469, 216.9936981201172, -13.085165023803711, 4.67363977432251, 215.93307495117188, -13.793051719665527, 4.547094345092773, 216.0496826171875, -13.748269081115723, 4.442668437957764, 214.27923583984375, -15.770509719848633, 4.8700666427612305, 214.08604431152344, -15.451277732849121, 5.265173435211182, 213.9834442138672, -15.73227310180664, 9.799118995666504, 213.28079223632812, -6.2093048095703125, 9.90770435333252, 213.509521484375, -6.3910393714904785, 10.014153480529785, 213.6437225341797, -6.6577348709106445, 10.118758201599121, 213.6446075439453, -7.045751571655273, 10.361734390258789, 213.71231079101562, -8.032413482666016, 10.177103042602539, 213.9490203857422, -10.23303508758545, 8.051861763000488, 214.22683715820312, -13.583105087280273, 6.926329612731934, 213.9561004638672, -14.691654205322266, 6.024463653564453, 213.1046600341797, -15.912334442138672, 9.829410552978516, 212.22227478027344, -9.246715545654297, 9.920361518859863, 212.4407196044922, -9.672788619995117, 9.967007637023926, 212.72518920898438, -9.959193229675293, 9.954977989196777, 212.97100830078125, -10.15894603729248, 9.87839126586914, 213.1761016845703, -10.404523849487305, 9.67348861694336, 213.43304443359375, -10.99292278289795, 8.510055541992188, 213.88694763183594, -13.518148422241211, 7.356104373931885, 213.5720672607422, -15.025507926940918, 6.620641231536865, 212.8951873779297, -16.166112899780273, 9.538140296936035, 211.25120544433594, -11.3399019241333, 9.617538452148438, 211.50685119628906, -11.506895065307617, 9.741259574890137, 211.8870849609375, -11.576258659362793, 9.844104766845703, 212.27711486816406, -11.674185752868652, 9.866628646850586, 212.60015869140625, -11.928998947143555, 9.77770709991455, 212.94186401367188, -12.348310470581055, 9.034004211425781, 213.42135620117188, -14.039219856262207, 7.925583839416504, 213.04139709472656, -15.594277381896973, 7.243285179138184, 212.57766723632812, -16.347797393798828, 9.334344863891602, 210.80166625976562, -12.257405281066895, 9.403873443603516, 211.07659912109375, -12.39255428314209, 9.434295654296875, 211.4793701171875, -12.824624061584473, 9.405433654785156, 211.7962646484375, -13.061370849609375, 9.334188461303711, 212.03208923339844, -13.38115119934082, 9.14137077331543, 212.323974609375, -13.914721488952637, 8.95848560333252, 212.49012756347656, -14.333597183227539, 8.059382438659668, 212.39707946777344, -15.587520599365234, 7.569816589355469, 212.0348358154297, -16.240568161010742, 6.896540641784668, 211.33175659179688, -16.9442138671875, 6.5676469802856445, 211.77047729492188, -17.204710006713867, 5.964785099029541, 211.9549102783203, -17.10702896118164, 5.594973564147949, 212.09913635253906, -17.128215789794922, 5.39544677734375, 210.93629455566406, -17.82627296447754, 5.028892993927002, 211.2208251953125, -17.80586814880371, 5.998622417449951, 210.65045166015625, -17.867204666137695, 8.57919692993164, 208.7527313232422, -14.543638229370117, 8.630925178527832, 209.7093505859375, -15.096956253051758, 8.408613204956055, 210.3115692138672, -15.002433776855469, 8.435989379882812, 210.89466857910156, -15.302483558654785, 8.380897521972656, 211.22610473632812, -15.598400115966797, 8.108072280883789, 211.4824676513672, -15.953956604003906, 7.642394542694092, 211.25587463378906, -16.41509437561035, 7.033209800720215, 210.9010009765625, -16.887161254882812, 6.1235880851745605, 210.06231689453125, -17.689178466796875, 6.295220375061035, 209.75662231445312, -17.489059448242188, 5.3723626136779785, 209.28724670410156, -18.18398094177246, 5.656462669372559, 208.82394409179688, -18.0689640045166, 5.1391448974609375, 209.67578125, -18.48466682434082, 4.853226184844971, 209.9373779296875, -18.420207977294922, 5.252370357513428, 212.30201721191406, -16.91058349609375, 5.11384391784668, 212.37112426757812, -16.758455276489258, 4.994413375854492, 212.39041137695312, -16.674501419067383, 4.19052267074585, 212.94509887695312, -16.98873519897461, 4.74144172668457, 211.3831787109375, -17.69839859008789, 4.624945163726807, 210.1435546875, -18.424095153808594, 3.0187923908233643, 210.32568359375, -18.233972549438477, 7.6252031326293945, 210.45245361328125, -16.349430084228516, 6.8399658203125, 209.9310760498047, -16.992137908935547, 6.696556568145752, 209.12612915039062, -17.71902847290039, 6.070074558258057, 208.51210021972656, -18.345884323120117, 6.58299446105957, 208.01651000976562, -18.48971176147461, 7.993673801422119, 210.0668182373047, -15.910805702209473, 7.666370868682861, 209.3314666748047, -16.96210479736328, 7.309758186340332, 208.59475708007812, -17.767099380493164, 6.950878143310547, 207.3621063232422, -18.05132484436035, -8.626809120178223, 212.71832275390625, -2.0591859817504883, -7.658504009246826, 213.53164672851562, 3.096985101699829, -7.432631969451904, 219.15994262695312, -3.5347776412963867, -8.86475658416748, 217.10975646972656, -5.966679096221924, -9.133615493774414, 216.67823791503906, -5.28748893737793, -8.475631713867188, 218.54489135742188, -2.41178035736084, -9.474912643432617, 215.47572326660156, -3.831854820251465, -8.93187141418457, 217.03512573242188, -0.38919761776924133, -9.4605073928833, 214.5557861328125, -3.065762758255005, -8.992875099182129, 215.96792602539062, 1.0612671375274658, -5.074872970581055, 219.60414123535156, -6.687213897705078, -4.53221321105957, 218.71226501464844, -9.79345417022705, -7.831976890563965, 218.1846160888672, -8.50145149230957, -5.766438961029053, 217.9905548095703, -10.385300636291504, -4.285829544067383, 217.02996826171875, -12.517909049987793, -5.090057849884033, 217.0924835205078, -12.596935272216797, -9.272637367248535, 210.65237426757812, -10.92249584197998, -9.324670791625977, 210.93038940429688, -10.044139862060547, -9.367292404174805, 211.2978515625, -9.055968284606934, -7.485326766967773, 206.21292114257812, -16.024425506591797, -9.04486083984375, 210.06861877441406, -13.180608749389648, 0.6256289482116699, 215.41757202148438, -14.953269958496094, -9.134448051452637, 211.57479858398438, -7.414877891540527, -9.028706550598145, 211.67263793945312, -6.733235836029053, -8.793252944946289, 211.87567138671875, -5.217525959014893, -8.640946388244629, 211.96484375, -4.382547378540039, -8.334046363830566, 212.0701446533203, -2.9860870838165283, -1.2217050790786743, 217.54559326171875, -13.094844818115234, -0.8309469819068909, 217.51283264160156, -13.180176734924316, -0.3644867241382599, 217.43870544433594, -13.202476501464844, 0.2700318992137909, 217.14144897460938, -13.05647087097168, -0.07021951675415039, 215.54275512695312, -15.017617225646973, -0.6313422322273254, 215.6615447998047, -15.119932174682617, -1.1214808225631714, 215.83387756347656, -15.290982246398926, -1.7156846523284912, 215.84751892089844, -15.311627388000488, -2.1825625896453857, 215.84141540527344, -15.255669593811035, -2.5887372493743896, 215.75009155273438, -15.086974143981934, -2.997209310531616, 215.72108459472656, -14.961389541625977, -3.4478108882904053, 215.74234008789062, -14.994732856750488, -4.181056499481201, 215.29400634765625, -14.856609344482422, -4.908472537994385, 215.0385284423828, -15.028054237365723, -8.443336486816406, 208.5065460205078, -14.631388664245605, 0.626285970211029, 213.93052673339844, -16.600996017456055, 0.3822745084762573, 210.79977416992188, -18.555683135986328, -0.1422680765390396, 213.8520050048828, -16.532604217529297, -0.23566463589668274, 210.59535217285156, -18.611282348632812, -4.747899055480957, 219.47279357910156, -7.702569961547852, -6.895188808441162, 218.1641845703125, -8.917143821716309, -9.363755226135254, 211.1486358642578, -9.474485397338867, -9.347352027893066, 211.38331604003906, -8.748574256896973, -7.987349510192871, 217.86451721191406, -7.846078395843506, -5.299920082092285, 219.50135803222656, -5.711871147155762, -5.7390971183776855, 219.4328155517578, -5.199207782745361, -8.143474578857422, 217.60159301757812, -7.318172454833984, -9.290790557861328, 211.43560791015625, -8.391570091247559, -6.504334926605225, 219.41432189941406, -4.545376300811768, -8.456436157226562, 217.39129638671875, -6.712583065032959, -9.220315933227539, 211.49705505371094, -7.956472873687744, -8.815618515014648, 217.93093872070312, -1.5085715055465698, -9.378695487976074, 216.1808624267578, -4.629052639007568, -8.912890434265137, 211.77464294433594, -6.016229629516602, -8.485782623291016, 212.02049255371094, -3.6333532333374023, -9.114654541015625, 213.50364685058594, -2.4466261863708496, -8.430712699890137, 214.205322265625, 2.5121264457702637, -8.745314598083496, 212.63723754882812, -2.7658727169036865, -9.196581840515137, 213.20103454589844, -3.3380837440490723, -9.630955696105957, 214.07859802246094, -4.174166679382324, -9.88717269897461, 214.8424530029297, -5.003737449645996, -9.963569641113281, 215.29959106445312, -5.483829975128174, -10.038909912109375, 215.80519104003906, -6.0401434898376465, -10.043538093566895, 216.32052612304688, -6.603562831878662, -10.025620460510254, 216.89503479003906, -7.168018341064453, -9.887958526611328, 217.3440704345703, -7.795382022857666, -9.559187889099121, 217.73171997070312, -8.522364616394043, -8.975874900817871, 217.9642333984375, -9.349501609802246, -8.018491744995117, 217.91455078125, -10.181485176086426, -6.94202995300293, 217.33978271484375, -11.091750144958496, -5.821396827697754, 216.24916076660156, -12.5930814743042, -5.612819671630859, 214.80148315429688, -15.50541877746582, -7.225849151611328, 213.4074249267578, -15.292549133300781, -8.323792457580566, 214.72547912597656, -13.502405166625977, -9.202627182006836, 215.3076171875, -11.994331359863281, -9.452051162719727, 215.22225952148438, -10.606165885925293, -10.09681510925293, 215.30517578125, -9.741844177246094, -10.379838943481445, 215.1526336669922, -8.929826736450195, -10.364107131958008, 214.9302520751953, -8.27176284790039, -10.274702072143555, 214.62802124023438, -7.694023609161377, -10.210287094116211, 214.35018920898438, -7.127950668334961, -10.071261405944824, 214.05868530273438, -6.503835678100586, -9.87484073638916, 213.7707977294922, -5.854004859924316, -9.662079811096191, 213.4713897705078, -5.140181541442871, -9.373666763305664, 213.1173553466797, -4.324928283691406, -8.9661226272583, 212.6603546142578, -3.5421481132507324, -8.4984130859375, 212.27894592285156, -2.893613576889038, -8.506245613098145, 212.39199829101562, -14.820169448852539, -9.066587448120117, 213.0985870361328, -12.953277587890625, -9.890145301818848, 213.55838012695312, -11.609683990478516, -10.033370971679688, 213.69732666015625, -10.433586120605469, -10.135881423950195, 213.7528533935547, -9.59937858581543, -10.095463752746582, 213.73171997070312, -8.925270080566406, -10.087980270385742, 213.61427307128906, -8.361066818237305, -10.053109169006348, 213.43753051757812, -7.841623783111572, -9.961410522460938, 213.28440856933594, -7.261912822723389, -9.818337440490723, 213.13418579101562, -6.611042022705078, -9.643592834472656, 212.97569274902344, -5.955071449279785, -9.4576416015625, 212.8587646484375, -5.283928871154785, -9.121306419372559, 212.62347412109375, -4.323903560638428, -8.748250007629395, 212.3520050048828, -3.5579440593719482, -8.395418167114258, 212.14418029785156, -2.956947088241577, -8.248451232910156, 212.99916076660156, 0.24201691150665283, -8.773645401000977, 213.78981018066406, -0.4377351403236389, -9.419516563415527, 215.19363403320312, -1.3589112758636475, -9.775057792663574, 216.3160400390625, -2.3435399532318115, -9.63867473602295, 217.28036499023438, -3.4472901821136475, -9.250472068786621, 217.9288787841797, -4.15988826751709, -8.499452590942383, 218.5196533203125, -4.973782539367676, -7.707480430603027, 218.85084533691406, -5.786979675292969, -7.050338268280029, 218.95590209960938, -6.418367862701416, -6.696446895599365, 218.95799255371094, -6.8657097816467285, -6.313825607299805, 218.9147491455078, -7.488982200622559, -5.871845245361328, 218.77609252929688, -8.422011375427246, -5.356744289398193, 218.40065002441406, -10.008060455322266, -4.770872592926025, 217.1051788330078, -12.478879928588867, -4.497917652130127, 215.11485290527344, -14.754461288452148, -7.518762588500977, 210.3336639404297, -16.904632568359375, -6.826862812042236, 207.265625, -17.972888946533203, -6.144644737243652, 211.0189666748047, -17.36911392211914, -5.61442756652832, 207.73741149902344, -18.520538330078125, -0.8147331476211548, 213.80238342285156, -16.606761932373047, -0.7056894302368164, 210.41542053222656, -18.579235076904297, -1.3224033117294312, 213.92222595214844, -16.85759735107422, -1.0965874195098877, 210.30535888671875, -18.69130516052246, -1.8068146705627441, 213.8673095703125, -16.90415382385254, -1.4679639339447021, 210.1981964111328, -18.739444732666016, -2.2362520694732666, 213.90689086914062, -16.974390029907227, -1.7661045789718628, 210.08920288085938, -18.699382781982422, -2.681025505065918, 213.8892822265625, -16.949909210205078, -2.065854072570801, 209.9972381591797, -18.69997787475586, -3.09658145904541, 213.80120849609375, -16.888219833374023, -2.311042547225952, 209.92379760742188, -18.8046875, -3.333604335784912, 213.6257781982422, -16.730133056640625, -2.541233539581299, 209.83445739746094, -18.835201263427734, -3.829577684402466, 213.43017578125, -16.604747772216797, -3.024143695831299, 209.759521484375, -18.72934913635254, -4.129178524017334, 213.35472106933594, -16.792774200439453, -3.3370347023010254, 209.6360321044922, -18.814863204956055, -4.526905059814453, 213.1462860107422, -17.125118255615234, -3.698124408721924, 209.4159393310547, -18.909852981567383, -5.023791313171387, 212.57342529296875, -16.994895935058594, -4.172783374786377, 208.99383544921875, -18.744497299194336, -8.576706886291504, 212.38812255859375, -2.84014892578125, -9.09623908996582, 212.92694091796875, -3.4721286296844482, -9.528128623962402, 213.59402465820312, -4.281834602355957, -9.833794593811035, 214.16387939453125, -5.107206344604492, -9.995667457580566, 214.58108520507812, -5.733140468597412, -9.95024585723877, 214.96925354003906, -6.323678970336914, -10.091732025146484, 215.36692810058594, -6.900169849395752, -10.133503913879395, 215.78204345703125, -7.483189105987549, -10.06882095336914, 216.13516235351562, -8.084891319274902, -9.808379173278809, 216.42025756835938, -8.7412109375, -9.411110877990723, 216.681884765625, -9.486268043518066, -8.76257610321045, 216.67330932617188, -10.446297645568848, -7.7168450355529785, 216.40931701660156, -11.375517845153809, -6.763850212097168, 215.6758575439453, -12.92796516418457, -6.265240669250488, 214.11756896972656, -15.378194808959961, -5.532449722290039, 211.8505096435547, -16.820556640625, -4.926745414733887, 208.4757537841797, -18.861541748046875, -6.7027812004089355, 212.7371063232422, 2.9185900688171387, -7.2395548820495605, 212.2802734375, 0.6693419814109802, -8.062349319458008, 212.107421875, -2.025146961212158, -8.1019868850708, 212.1007843017578, -2.184257984161377, 7.64868688583374, 206.6207275390625, -15.797746658325195, 4.5457000732421875, 211.46533203125, -17.584932327270508, 4.385922431945801, 211.517578125, -17.502185821533203, 3.6151766777038574, 211.8830108642578, -17.877811431884766, 3.412753105163574, 211.90818786621094, -17.84347915649414, 2.9828035831451416, 212.10874938964844, -17.61172866821289, 2.5536341667175293, 212.21482849121094, -17.540891647338867, 1.5190730094909668, 212.5116729736328, -17.848649978637695, 0.5345271825790405, 212.48089599609375, -17.900949478149414, -0.1624106615781784, 212.2229766845703, -17.731578826904297, -0.7265398502349854, 212.2315673828125, -17.979816436767578, -1.2580968141555786, 212.04898071289062, -17.966232299804688, -1.7076162099838257, 211.89785766601562, -18.051836013793945, -2.044931173324585, 211.9059295654297, -18.093873977661133, -2.4223763942718506, 211.94235229492188, -18.18012046813965, -2.722238063812256, 211.770751953125, -18.043180465698242, -2.9528908729553223, 211.63973999023438, -18.002098083496094, -3.403538703918457, 211.625732421875, -18.05844497680664, -3.721419334411621, 211.45594787597656, -18.062559127807617, -4.017627716064453, 211.11402893066406, -17.993804931640625, -4.597128391265869, 210.7163848876953, -18.06123161315918, -5.162080764770508, 210.13287353515625, -18.084123611450195, -5.753000736236572, 209.47879028320312, -18.2657527923584, -6.890783786773682, 208.73394775390625, -17.27909278869629, -7.993000030517578, 207.40708923339844, -15.33559513092041, 4.417480945587158, 210.28562927246094, -18.41709327697754, 4.212360382080078, 210.3300323486328, -18.362947463989258, 8.409690856933594, 208.67955017089844, -15.88579273223877, 8.313756942749023, 208.04067993164062, -14.821013450622559, 7.589610576629639, 206.6897430419922, -16.694332122802734, 8.362517356872559, 209.197021484375, -16.10087013244629, 7.398346900939941, 206.7899169921875, -17.493207931518555, 7.6743621826171875, 208.0342254638672, -17.300134658813477, 7.987363815307617, 208.48794555664062, -16.855976104736328, 7.9269208908081055, 207.65867614746094, -16.703889846801758, 8.166942596435547, 207.99925231933594, -16.375417709350586, 8.061258316040039, 207.52020263671875, -15.307923316955566, 7.806114196777344, 206.9959259033203, -15.4542236328125, -6.592232704162598, 204.25135803222656, -16.098970413208008, -6.159029960632324, 204.82591247558594, -17.830936431884766, -5.766409397125244, 205.0543212890625, -18.78729820251465, -5.041274547576904, 205.63217163085938, -19.21656608581543, -4.400269508361816, 205.8669891357422, -19.389081954956055, -3.7769219875335693, 206.1810302734375, -19.49805450439453, -3.2197277545928955, 206.3987274169922, -19.225194931030273, -2.826409101486206, 206.9580535888672, -19.458707809448242, -2.3551907539367676, 207.02415466308594, -19.461719512939453, -2.242906093597412, 207.299560546875, -19.5780029296875, -1.9129441976547241, 207.25839233398438, -19.570791244506836, -1.7280247211456299, 207.48831176757812, -19.317790985107422, -1.5202600955963135, 207.26382446289062, -19.243457794189453, -1.230604648590088, 207.2491455078125, -19.067827224731445, -0.8588922619819641, 207.31826782226562, -19.076904296875, -0.4767083525657654, 207.40704345703125, -19.277393341064453, -0.04073681682348251, 207.46971130371094, -19.613725662231445, 0.5283503532409668, 207.45416259765625, -19.736125946044922, 1.0808953046798706, 207.4331817626953, -19.99054718017578, 1.9732985496520996, 207.22720336914062, -19.987123489379883, 2.2627475261688232, 207.04515075683594, -19.496034622192383, 2.5813863277435303, 207.10113525390625, -19.274551391601562, 4.467502117156982, 207.90455627441406, -18.66701889038086, 4.646042823791504, 207.76283264160156, -18.878990173339844, 4.812963962554932, 207.57223510742188, -19.086700439453125, 5.109736442565918, 207.13392639160156, -19.159379959106445, 5.292463779449463, 206.7836456298828, -19.098180770874023, 5.662539482116699, 206.20765686035156, -19.10494041442871, 6.192480087280273, 205.32406616210938, -18.11008644104004, 6.822113990783691, 204.49432373046875, -17.35072135925293, 6.815371036529541, 204.128662109375, -16.752281188964844, -2.0136375427246094, 205.20547485351562, -19.3662109375, -1.3318275213241577, 205.53126525878906, -19.6658992767334, -0.9246594905853271, 205.8318328857422, -19.524999618530273, -0.6134591102600098, 205.90972900390625, -19.534412384033203, -0.18255439400672913, 205.83140563964844, -19.793062210083008, 0.3283891975879669, 205.7159423828125, -19.996381759643555, 0.8692309260368347, 205.6148223876953, -20.121660232543945, 1.366753339767456, 205.53404235839844, -20.067214965820312, 1.673573613166809, 205.39735412597656, -19.7169246673584, 2.231248617172241, 205.48655700683594, -19.69948387145996, -6.914736270904541, 205.01705932617188, -16.060222625732422, -6.886572360992432, 205.80836486816406, -18.30971336364746, -5.81669807434082, 206.37464904785156, -18.793344497680664, -4.960791110992432, 206.97357177734375, -19.089262008666992, -4.197741508483887, 207.3787841796875, -18.965938568115234, -3.6939661502838135, 207.75035095214844, -19.248497009277344, -3.222395658493042, 207.9783477783203, -19.230510711669922, -2.843878984451294, 208.17591857910156, -19.336261749267578, -2.5074269771575928, 208.31455993652344, -19.290546417236328, -2.2473630905151367, 208.4227294921875, -19.158945083618164, -2.027041435241699, 208.4976806640625, -19.036928176879883, -1.7457520961761475, 208.5642547607422, -18.958219528198242, -1.43378746509552, 208.64480590820312, -18.921283721923828, -1.076203465461731, 208.73046875, -19.03512954711914, -0.7014670372009277, 208.8098907470703, -18.9881591796875, -0.2655179798603058, 208.92706298828125, -19.05793571472168, 0.18447446823120117, 209.11756896972656, -19.313188552856445, 0.8003697991371155, 209.1873779296875, -19.281198501586914, 1.4171195030212402, 209.2598876953125, -19.62710189819336, 2.13594126701355, 209.10707092285156, -19.51335906982422, 2.6290431022644043, 208.90670776367188, -19.2353515625, 2.8544833660125732, 208.78591918945312, -18.969680786132812, 4.298098087310791, 209.0748748779297, -18.863412857055664, 4.443808078765869, 209.1374053955078, -18.824491500854492, 4.604676246643066, 208.95407104492188, -18.685012817382812, 4.709530353546143, 208.7814483642578, -18.509231567382812, 4.843669414520264, 208.44747924804688, -18.365108489990234, 5.16642427444458, 208.1736297607422, -18.559724807739258, 5.520030498504639, 207.8547821044922, -18.872356414794922, 5.981152057647705, 207.24563598632812, -18.80950164794922, 6.322603702545166, 206.85484313964844, -18.705352783203125, 6.760085105895996, 206.19363403320312, -18.16135025024414, 6.847043514251709, 205.99887084960938, -17.569692611694336, 7.148594379425049, 205.58355712890625, -16.783809661865234, 7.158257484436035, 205.36285400390625, -16.06719398498535, 4.553997993469238, 212.6165771484375, -16.622629165649414, 4.018256187438965, 211.6865997314453, -17.63774871826172, 3.5456690788269043, 210.22225952148438, -18.137832641601562, 3.729459047317505, 208.9641876220703, -18.90449333190918, 4.118770122528076, 207.84718322753906, -18.65334129333496, 3.582447052001953, 207.65655517578125, -18.796621322631836, 3.151825428009033, 205.77903747558594, -19.80914878845215, 3.6170849800109863, 205.92076110839844, -19.65646743774414, 3.956439971923828, 205.88885498046875, -19.45104217529297, 4.231551647186279, 205.64871215820312, -19.37679672241211, 4.457783222198486, 205.4558563232422, -19.421220779418945, 4.6879801750183105, 205.1437225341797, -19.32493782043457, -2.2995753288269043, 204.79287719726562, -19.91531753540039, -3.087010622024536, 204.1627655029297, -19.681529998779297, -3.352707624435425, 203.65985107421875, -19.555034637451172, -0.4834670126438141, 203.6057586669922, -19.487777709960938, -1.0164884328842163, 203.43519592285156, -19.52170753479004, -1.3774458169937134, 203.29434204101562, -19.669179916381836, -1.8305314779281616, 203.04051208496094, -19.570659637451172, -2.180940628051758, 202.7372283935547, -19.421791076660156, -3.5308408737182617, 203.2431182861328, -19.205093383789062, -2.407083511352539, 202.39990234375, -19.249691009521484, -0.6580676436424255, 201.36341857910156, -19.14859962463379, -0.7320610880851746, 201.32223510742188, -19.1430721282959, -1.1121137142181396, 201.15415954589844, -18.96854019165039, -0.054834410548210144, 201.68019104003906, -19.012331008911133, -0.4369339942932129, 201.5717010498047, -19.064123153686523, -0.6462898850440979, 201.81539916992188, -19.174209594726562, -6.487919807434082, 203.78396606445312, -16.689512252807617, -6.232954978942871, 203.89930725097656, -18.021015167236328, -5.724023818969727, 203.89625549316406, -18.524490356445312, -3.9525880813598633, 202.82571411132812, -19.422168731689453, -2.713242292404175, 202.07327270507812, -19.467830657958984, -1.3636620044708252, 200.7934112548828, -19.1834716796875, -6.310422897338867, 203.24940490722656, -16.826311111450195, -6.1548309326171875, 203.17295837402344, -17.85560417175293, -5.695985317230225, 201.7378387451172, -17.68097496032715, -5.945774078369141, 202.32351684570312, -16.802940368652344, -5.375648498535156, 200.9493865966797, -17.379013061523438, -5.5705671310424805, 201.41409301757812, -16.755346298217773, -5.7993059158325195, 203.0364227294922, -18.369098663330078, -4.328298568725586, 202.2275848388672, -19.154953002929688, -3.2376608848571777, 201.5122833251953, -19.295793533325195, -1.5050852298736572, 200.12030029296875, -18.936927795410156, -0.13971161842346191, 199.44198608398438, -18.490137100219727, 0.3470388352870941, 199.5242156982422, -18.326173782348633, -0.6277734637260437, 198.6034393310547, -18.536287307739258, 0.06150539964437485, 197.56800842285156, -17.745203018188477, -0.2765749990940094, 197.5169219970703, -17.77513313293457, 0.4530070126056671, 197.682373046875, -17.767398834228516, 0.19724026322364807, 196.4988555908203, -16.832698822021484, -0.19422027468681335, 196.44830322265625, -16.691755294799805, 0.5141258239746094, 196.47506713867188, -16.82501220703125, 0.5782545208930969, 195.77052307128906, -15.235719680786133, 0.30152153968811035, 195.74658203125, -15.264246940612793, -0.25382229685783386, 195.8346405029297, -15.149356842041016, -5.762280464172363, 202.36024475097656, -18.041255950927734, -4.465801239013672, 201.62515258789062, -18.816801071166992, -3.4599239826202393, 201.09713745117188, -19.03923988342285, -4.511556148529053, 200.810546875, -18.51436996459961, -4.551371097564697, 199.93011474609375, -18.20241928100586, -3.6673920154571533, 200.30050659179688, -18.68568229675293, -1.8941771984100342, 199.80479431152344, -18.757076263427734, -1.923261046409607, 199.47735595703125, -18.592365264892578, -3.605297088623047, 199.35960388183594, -18.354793548583984, -2.185297966003418, 198.7660675048828, -18.22956657409668, -1.0789990425109863, 198.1626739501953, -17.869186401367188, -0.7394670248031616, 197.46011352539062, -17.41998291015625, -0.6688849925994873, 196.47042846679688, -16.553573608398438, -0.6084959506988525, 196.00790405273438, -15.013372421264648, -3.4018948078155518, 198.55288696289062, -17.085926055908203, -4.031671047210693, 198.95242309570312, -16.80199432373047, -2.137937068939209, 198.14651489257812, -17.578697204589844, -1.6025795936584473, 197.62957763671875, -17.47084617614746, -1.2705185413360596, 197.26077270507812, -17.279674530029297, -0.9976000189781189, 196.52748107910156, -16.398019790649414, -0.9838774800300598, 196.2586669921875, -14.88772964477539, -4.575992107391357, 199.5021514892578, -16.76282501220703, -4.689266204833984, 199.61529541015625, -16.31241798400879, -6.05585241317749, 202.63092041015625, -17.542564392089844, -6.166521072387695, 202.86793518066406, -16.820615768432617, -6.0300750732421875, 202.55984497070312, -16.74688720703125, -2.9930198192596436, 198.0973663330078, -15.366357803344727, -3.399855852127075, 198.4315185546875, -15.512683868408203, -2.415937662124634, 197.6040496826172, -15.06347942352295, -2.0395119190216064, 197.2242889404297, -14.990555763244629, -1.6498695611953735, 196.8319549560547, -14.969427108764648, -1.1943682432174683, 196.51161193847656, -14.641582489013672, -3.7049849033355713, 198.65054321289062, -15.74524211883545, -5.213985919952393, 200.61354064941406, -16.562110900878906, -5.034972190856934, 200.26084899902344, -17.16132926940918, -4.221194744110107, 199.45689392089844, -17.557113647460938, -3.3335659503936768, 199.0382843017578, -17.700332641601562, -2.1202800273895264, 198.59764099121094, -17.85818862915039, -1.295436978340149, 197.9847412109375, -17.61852264404297, -0.9688340425491333, 197.39183044433594, -17.335758209228516, -0.8166067004203796, 196.48403930664062, -16.491971969604492, -0.7743034362792969, 196.11399841308594, -14.959280967712402, 5.817843914031982, 203.28390502929688, -18.517311096191406, 5.26280403137207, 204.40013122558594, -18.69729232788086, 5.850534439086914, 202.32814025878906, -16.863149642944336, 4.756303787231445, 201.50765991210938, -18.597597122192383, 4.753436088562012, 202.30836486816406, -18.93033218383789, 4.899886131286621, 200.9127960205078, -17.348609924316406, 3.848978042602539, 199.83749389648438, -17.98885154724121, 3.5348610877990723, 200.6256561279297, -18.78382682800293, 3.2574901580810547, 199.30784606933594, -18.124462127685547, 3.8647589683532715, 199.36598205566406, -16.957414627075195, 3.609388589859009, 199.1010284423828, -17.224390029907227, 3.2414047718048096, 198.67454528808594, -17.358800888061523, 2.777589797973633, 198.7995147705078, -18.05291175842285, 2.4858410358428955, 198.99346923828125, -18.250812530517578, 2.098820924758911, 197.8390350341797, -17.681915283203125, 1.84381902217865, 197.951904296875, -17.751630783081055, 3.1065149307250977, 198.51727294921875, -17.38422203063965, 2.662724018096924, 197.58824157714844, -16.913898468017578, 1.6214649677276611, 196.574951171875, -16.818815231323242, 1.2630202770233154, 196.56292724609375, -16.875717163085938, 2.3316919803619385, 196.7376251220703, -16.117822647094727, 1.5701096057891846, 196.0958709716797, -15.352543830871582, 1.201903223991394, 195.94163513183594, -15.27082633972168, 2.0702390670776367, 196.42547607421875, -15.494656562805176, 3.2996609210968018, 201.16932678222656, -19.03236961364746, 2.0868730545043945, 199.37789916992188, -18.587162017822266, 1.4003831148147583, 197.92584228515625, -17.907005310058594, 1.2332220077514648, 199.3500518798828, -18.818540573120117, 0.8997427225112915, 197.79949951171875, -18.016019821166992, 0.614473819732666, 197.75726318359375, -17.889568328857422, 0.8667696714401245, 199.49203491210938, -18.40743637084961, 0.3200240135192871, 203.7491455078125, -19.855899810791016, 0.46031901240348816, 202.02391052246094, -19.315153121948242, 5.957037925720215, 206.0589599609375, -18.9066162109375, 6.167606353759766, 205.6273956298828, -18.471229553222656, 5.130148410797119, 204.98777770996094, -19.116455078125, 4.967077732086182, 205.09951782226562, -19.230911254882812, 4.227229118347168, 203.67550659179688, -18.97191619873047, 4.076688766479492, 204.172607421875, -19.279951095581055, 3.012948989868164, 204.46153259277344, -19.499040603637695, 3.1417386531829834, 202.0041046142578, -19.315797805786133, 2.805927038192749, 202.45542907714844, -19.05938720703125, 2.2426764965057373, 202.51031494140625, -19.257593154907227, 1.475414752960205, 202.2997283935547, -19.256275177001953, 1.445237636566162, 199.31216430664062, -18.84265899658203, 1.1397309303283691, 197.86180114746094, -17.986331939697266, 3.4706718921661377, 198.66798400878906, -16.754920959472656, 3.302781105041504, 198.37600708007812, -16.71355628967285, 3.0722711086273193, 197.94554138183594, -16.539691925048828, 2.6248340606689453, 197.07565307617188, -16.04718780517578, 2.3681299686431885, 196.71084594726562, -15.681681632995605, 1.0250040292739868, 196.57603454589844, -16.893171310424805, 0.8068276047706604, 196.5478515625, -16.891075134277344, 1.0487929582595825, 195.88551330566406, -15.279929161071777, 0.8964419960975647, 195.84654235839844, -15.230849266052246, -4.630941867828369, 212.82196044921875, 5.058145999908447, -5.668476581573486, 213.45217895507812, 5.572820663452148, -6.798379898071289, 214.54161071777344, 5.181199073791504, -8.212697982788086, 216.5647430419922, 3.6189799308776855, -8.17559814453125, 217.66744995117188, 1.5424200296401978, -7.525519847869873, 218.2952117919922, -0.12135876715183258, -7.119584083557129, 218.61680603027344, -1.094032883644104, -6.255867958068848, 219.11749267578125, -2.478518009185791, -5.25667142868042, 219.41854858398438, -3.6639130115509033, -4.442319393157959, 219.64358520507812, -4.533928394317627, -4.122412204742432, 219.72203063964844, -5.139232158660889, -3.762026309967041, 219.66326904296875, -5.981939792633057, -3.682372808456421, 219.28565979003906, -7.629983425140381, -3.8804407119750977, 218.8025360107422, -9.873984336853027, -3.992208957672119, 217.12770080566406, -12.620060920715332, -3.9965341091156006, 215.41334533691406, -14.903489112854004, -3.6248714923858643, 213.4817352294922, -16.60634994506836, -3.1993961334228516, 211.63111877441406, -18.0004940032959, -2.771001100540161, 209.79295349121094, -18.783103942871094, -2.706073760986328, 208.2430877685547, -19.358633041381836, -2.627248525619507, 206.98605346679688, -19.431333541870117, -2.7141382694244385, 205.90408325195312, -19.303613662719727, -3.3677914142608643, 205.81234741210938, -19.590160369873047, -4.1447319984436035, 205.4051055908203, -19.489126205444336, -4.81569766998291, 205.0175323486328, -19.40642547607422, -5.135486602783203, 204.5703887939453, -18.87942123413086, -5.299733638763428, 203.677490234375, -18.87781524658203, -5.340161323547363, 202.85557556152344, -18.688823699951172, -5.2972412109375, 202.15553283691406, -18.421184539794922, -5.3922882080078125, 201.44622802734375, -18.099756240844727, -5.22076416015625, 200.67857360839844, -17.683225631713867, -4.912749767303467, 200.09046936035156, -17.29567527770996, -4.54693603515625, 199.48501586914062, -16.808441162109375, -4.320404529571533, 199.16592407226562, -16.077646255493164, 7.213816165924072, 214.1383819580078, 4.063183784484863, 6.615520000457764, 214.0943145751953, 4.855285167694092, 5.861643314361572, 213.9281768798828, 5.5939178466796875, 5.393588066101074, 213.84945678710938, 6.078009128570557, 4.899518013000488, 213.59425354003906, 6.362582206726074, 8.018651008605957, 214.00424194335938, 2.292574167251587, 8.586333274841309, 214.13194274902344, 0.8999350070953369, 8.929215431213379, 214.14215087890625, -0.7178789973258972, 9.405327796936035, 213.78944396972656, -3.418426036834717, -2.4934606552124023, 213.12338256835938, 7.229313850402832, -3.4813501834869385, 213.8739013671875, 8.174229621887207, -5.158977508544922, 215.00924682617188, 7.920961856842041, -7.337148189544678, 217.06517028808594, 5.474381446838379, -7.7194976806640625, 218.31153869628906, 3.0309982299804688, -7.246978282928467, 219.08993530273438, 1.010119080543518, -6.608815670013428, 219.52471923828125, -0.04349594935774803, -5.536242961883545, 219.86248779296875, -1.660132884979248, -4.308609485626221, 220.0546417236328, -3.2655560970306396, -3.5908522605895996, 220.23812866210938, -4.306314468383789, -3.3869211673736572, 220.28273010253906, -4.761136054992676, -3.042371988296509, 220.3362274169922, -5.615243911743164, -3.081998109817505, 219.9933624267578, -7.409921646118164, -3.5361781120300293, 219.1754150390625, -9.937222480773926, -3.721573829650879, 217.31394958496094, -12.679161071777344, -3.8097856044769287, 215.5375213623047, -14.977405548095703, -3.495281934738159, 213.5094757080078, -16.664928436279297, -3.0740866661071777, 211.6348419189453, -17.99614715576172, -2.6526684761047363, 209.82147216796875, -18.812664031982422, -2.6037018299102783, 208.28057861328125, -19.32670783996582, -2.4853148460388184, 207.00547790527344, -19.41147232055664, -2.375750780105591, 205.59921264648438, -19.377540588378906, -2.956242084503174, 205.46290588378906, -19.672597885131836, -3.730584144592285, 204.8175506591797, -19.62026596069336, -4.195748805999756, 204.36367797851562, -19.56887435913086, -4.428840637207031, 203.98733520507812, -19.047739028930664, -4.814684867858887, 203.36119079589844, -19.18824577331543, -4.949759006500244, 202.63882446289062, -18.91156768798828, -4.962347984313965, 201.93829345703125, -18.603113174438477, -5.107424736022949, 201.24981689453125, -18.268800735473633, -5.046687602996826, 200.42613220214844, -17.90149688720703, -4.754360675811768, 199.8936767578125, -17.398452758789062, -4.4424614906311035, 199.3591766357422, -16.786495208740234, -4.0107831954956055, 198.89028930664062, -15.908462524414062, -5.987667560577393, 202.43873596191406, -16.775604248046875, -6.1644439697265625, 202.78350830078125, -17.147558212280273, -6.3051676750183105, 203.25152587890625, -17.312274932861328, -6.474963665008545, 203.8424072265625, -17.303924560546875, -6.6765570640563965, 204.54873657226562, -17.106964111328125, -7.020291328430176, 205.48802185058594, -17.1136417388916, -7.6889166831970215, 206.65185546875, -17.0534610748291, -7.8499531745910645, 208.05169677734375, -16.555858612060547, -8.115936279296875, 209.4359130859375, -15.664502143859863, -9.052510261535645, 211.0960693359375, -13.964168548583984, -9.596073150634766, 211.84814453125, -12.015663146972656, -9.813231468200684, 212.10745239257812, -10.678409576416016, -9.855351448059082, 212.19363403320312, -9.823533058166504, -9.880123138427734, 212.36019897460938, -9.298758506774902, -9.86545467376709, 212.4290008544922, -8.828327178955078, -9.806429862976074, 212.40914916992188, -8.380446434020996, -9.715734481811523, 212.35267639160156, -7.947732448577881, -9.615272521972656, 212.3392333984375, -7.394443988800049, -9.464271545410156, 212.3216552734375, -6.6829352378845215, -9.325872421264648, 212.32371520996094, -5.993039131164551, -9.16748046875, 212.3439178466797, -5.239223480224609, -8.905893325805664, 212.2872314453125, -4.348186492919922, -8.624003410339355, 212.18661499023438, -3.593733072280884, -8.365798950195312, 212.107666015625, -2.9710729122161865, -8.309029579162598, 212.1877899169922, -2.5454723834991455, -8.333414077758789, 212.24366760253906, -2.4392635822296143, -8.69318675994873, 212.67295837402344, -2.4188623428344727, -9.15785026550293, 213.34844970703125, -2.902043342590332, -9.555191040039062, 214.3111572265625, -3.6306986808776855, -9.731866836547852, 215.15997314453125, -4.419210433959961, -9.802911758422852, 215.85252380371094, -5.09732723236084, -9.734808921813965, 216.43463134765625, -5.690507888793945, -9.586054801940918, 216.94699096679688, -6.299864292144775, -9.314144134521484, 217.3767852783203, -6.878908634185791, -8.969523429870605, 217.67019653320312, -7.529555320739746, -8.610339164733887, 217.95941162109375, -8.151939392089844, -8.202380180358887, 218.32852172851562, -8.849273681640625, -7.323285102844238, 218.46327209472656, -9.45217227935791, -6.25023889541626, 218.15887451171875, -10.436767578125, -5.374038219451904, 216.95326232910156, -12.445181846618652, -5.351271629333496, 215.00108337402344, -15.439774513244629, -4.729887008666992, 212.7416534423828, -17.0046443939209, -4.241604328155518, 210.821533203125, -17.921052932739258, -3.900722026824951, 209.17709350585938, -18.79050636291504, -4.033182621002197, 207.59298706054688, -19.2515811920166, -4.122183799743652, 206.03341674804688, -19.520479202270508, -3.772439479827881, 205.61598205566406, -19.62489128112793, -3.3900656700134277, 205.18971252441406, -19.706615447998047, -2.663297414779663, 204.33905029296875, -19.740028381347656, -1.6124951839447021, 203.14279174804688, -19.57285499572754, -0.7596234083175659, 201.6668701171875, -19.232864379882812], 
    "triangles": [6, 7, 0, 0, 7, 3, 7, 8, 3, 3, 8, 5, 7, 6, 2, 2, 6, 1, 4, 8, 2, 2, 8, 7, 9, 10, 8, 8, 10, 5, 8, 4, 9, 9, 4, 11, 49, 50, 9, 9, 50, 10, 48, 49, 11, 11, 49, 9, 191, 13, 190, 190, 13, 12, 189, 190, 14, 14, 190, 12, 162, 163, 22, 22, 163, 18, 161, 162, 19, 19, 162, 22, 16, 15, 20, 20, 15, 23, 15, 17, 23, 23, 17, 21, 24, 25, 22, 22, 25, 19, 22, 18, 24, 24, 18, 26, 25, 24, 28, 28, 24, 29, 24, 26, 29, 29, 26, 27, 30, 19, 31, 31, 19, 25, 33, 32, 31, 31, 32, 30, 33, 31, 28, 25, 28, 31, 160, 161, 30, 30, 161, 19, 160, 30, 159, 159, 30, 32, 36, 16, 34, 34, 16, 20, 191, 192, 13, 13, 192, 37, 38, 36, 35, 35, 36, 34, 37, 192, 39, 39, 192, 193, 50, 51, 10, 10, 51, 40, 41, 5, 40, 40, 5, 10, 42, 3, 41, 41, 3, 5, 42, 43, 3, 3, 43, 0, 45, 44, 42, 42, 44, 43, 42, 41, 45, 45, 41, 46, 46, 41, 47, 47, 41, 40, 51, 52, 40, 40, 52, 47, 49, 48, 12, 12, 48, 14, 50, 49, 13, 13, 49, 12, 51, 50, 37, 37, 50, 13, 39, 52, 37, 37, 52, 51, 53, 54, 52, 52, 54, 47, 47, 54, 46, 46, 54, 55, 56, 53, 39, 39, 53, 52, 194, 56, 193, 193, 56, 39, 58, 57, 35, 35, 57, 38, 158, 159, 59, 59, 159, 32, 60, 59, 33, 33, 59, 32, 61, 60, 28, 28, 60, 33, 62, 45, 55, 55, 45, 46, 62, 63, 45, 45, 63, 44, 65, 64, 58, 58, 64, 57, 194, 195, 56, 56, 195, 66, 56, 66, 53, 53, 66, 67, 67, 68, 53, 53, 68, 54, 68, 69, 54, 54, 69, 55, 69, 70, 55, 55, 70, 62, 70, 71, 62, 62, 71, 63, 73, 72, 70, 70, 72, 71, 74, 73, 69, 69, 73, 70, 69, 68, 74, 74, 68, 75, 68, 67, 75, 75, 67, 76, 67, 66, 76, 76, 66, 77, 195, 196, 66, 66, 196, 77, 65, 79, 64, 64, 79, 78, 158, 59, 157, 157, 59, 80, 157, 80, 156, 156, 80, 81, 82, 80, 60, 60, 80, 59, 83, 81, 82, 82, 81, 80, 82, 84, 83, 83, 84, 85, 84, 82, 61, 61, 82, 60, 85, 84, 87, 87, 84, 88, 88, 84, 86, 86, 84, 61, 86, 61, 89, 89, 61, 28, 91, 90, 1, 1, 90, 2, 90, 92, 2, 2, 92, 4, 92, 93, 4, 4, 93, 11, 93, 94, 11, 11, 94, 48, 95, 14, 94, 94, 14, 48, 188, 189, 95, 95, 189, 14, 96, 97, 17, 17, 97, 21, 164, 98, 163, 163, 98, 18, 98, 99, 18, 18, 99, 26, 99, 100, 26, 26, 100, 27, 101, 90, 102, 102, 90, 91, 103, 92, 101, 101, 92, 90, 104, 93, 103, 103, 93, 92, 94, 93, 105, 105, 93, 104, 95, 94, 106, 106, 94, 105, 106, 187, 95, 95, 187, 188, 97, 96, 108, 108, 96, 107, 165, 109, 164, 164, 109, 98, 109, 110, 98, 98, 110, 99, 110, 111, 99, 99, 111, 100, 113, 112, 102, 102, 112, 101, 112, 114, 101, 101, 114, 103, 103, 114, 104, 104, 114, 115, 104, 115, 105, 105, 115, 116, 105, 116, 106, 106, 116, 117, 186, 187, 117, 117, 187, 106, 119, 108, 118, 118, 108, 107, 109, 165, 120, 120, 165, 166, 120, 121, 109, 109, 121, 110, 121, 122, 110, 110, 122, 111, 124, 123, 112, 112, 123, 114, 125, 124, 113, 113, 124, 112, 123, 126, 114, 114, 126, 115, 116, 115, 127, 127, 115, 126, 127, 128, 116, 116, 128, 117, 128, 185, 117, 117, 185, 186, 119, 118, 130, 130, 118, 129, 166, 167, 120, 120, 167, 131, 132, 121, 131, 131, 121, 120, 134, 133, 125, 125, 133, 124, 133, 135, 124, 124, 135, 136, 135, 137, 136, 136, 137, 138, 139, 140, 137, 137, 140, 138, 139, 141, 140, 140, 141, 142, 141, 182, 142, 142, 182, 183, 143, 145, 144, 144, 145, 146, 123, 124, 147, 136, 147, 124, 147, 148, 123, 123, 148, 126, 136, 138, 147, 147, 138, 148, 127, 126, 149, 149, 126, 148, 138, 140, 148, 148, 140, 149, 149, 150, 127, 127, 150, 128, 140, 142, 149, 149, 142, 150, 150, 184, 128, 128, 184, 185, 142, 183, 150, 150, 183, 184, 130, 129, 152, 152, 129, 151, 152, 151, 146, 146, 151, 144, 131, 167, 153, 153, 167, 168, 170, 154, 169, 169, 154, 155, 153, 168, 155, 155, 168, 169, 203, 157, 202, 202, 157, 156, 204, 158, 203, 203, 158, 157, 158, 204, 159, 159, 204, 205, 206, 160, 205, 205, 160, 159, 161, 160, 207, 207, 160, 206, 207, 208, 161, 161, 208, 162, 208, 209, 162, 162, 209, 163, 210, 164, 209, 209, 164, 163, 211, 165, 210, 210, 165, 164, 165, 211, 166, 166, 211, 212, 166, 212, 167, 167, 212, 213, 167, 213, 168, 168, 213, 214, 168, 214, 169, 169, 214, 215, 216, 170, 215, 215, 170, 169, 171, 154, 172, 172, 154, 170, 216, 217, 170, 170, 217, 172, 145, 143, 173, 173, 143, 174, 182, 141, 181, 181, 141, 175, 141, 139, 175, 175, 139, 176, 137, 177, 139, 139, 177, 176, 135, 178, 137, 137, 178, 177, 133, 179, 135, 135, 179, 178, 180, 179, 134, 134, 179, 133, 143, 182, 174, 174, 182, 181, 182, 143, 183, 183, 143, 144, 183, 144, 184, 184, 144, 151, 184, 151, 185, 185, 151, 129, 186, 185, 118, 118, 185, 129, 187, 186, 107, 107, 186, 118, 187, 107, 188, 188, 107, 96, 189, 188, 17, 17, 188, 96, 190, 189, 15, 15, 189, 17, 191, 190, 16, 16, 190, 15, 192, 191, 36, 36, 191, 16, 193, 192, 38, 38, 192, 36, 57, 194, 38, 38, 194, 193, 195, 194, 64, 64, 194, 57, 196, 195, 78, 78, 195, 64, 174, 199, 173, 173, 199, 200, 199, 197, 200, 200, 197, 198, 217, 218, 172, 172, 218, 201, 65, 203, 79, 79, 203, 202, 58, 204, 65, 65, 204, 203, 204, 58, 205, 205, 58, 35, 206, 205, 34, 34, 205, 35, 207, 206, 20, 20, 206, 34, 208, 207, 23, 23, 207, 20, 209, 208, 21, 21, 208, 23, 97, 210, 21, 21, 210, 209, 108, 211, 97, 97, 211, 210, 211, 108, 212, 212, 108, 119, 212, 119, 213, 213, 119, 130, 213, 130, 214, 214, 130, 152, 214, 152, 215, 215, 152, 146, 145, 216, 146, 146, 216, 215, 216, 145, 217, 217, 145, 173, 218, 217, 200, 200, 217, 173, 200, 198, 218, 218, 198, 219, 201, 218, 220, 220, 218, 219, 222, 221, 219, 219, 221, 220, 222, 219, 223, 223, 219, 198, 197, 224, 198, 198, 224, 223, 223, 225, 222, 222, 225, 226, 227, 221, 226, 226, 221, 222, 225, 223, 228, 228, 223, 224, 230, 220, 229, 229, 220, 221, 231, 229, 227, 227, 229, 221, 232, 233, 229, 229, 233, 230, 231, 234, 229, 229, 234, 232, 235, 236, 232, 232, 236, 233, 220, 230, 201, 201, 230, 237, 230, 233, 237, 237, 233, 238, 238, 233, 239, 239, 233, 236, 234, 240, 232, 232, 240, 235, 237, 171, 201, 201, 171, 172, 171, 237, 241, 241, 237, 238, 239, 242, 238, 238, 242, 241, 171, 241, 154, 154, 241, 243, 154, 243, 155, 155, 243, 244, 155, 244, 153, 153, 244, 245, 153, 245, 131, 131, 245, 132, 242, 246, 241, 241, 246, 243, 243, 246, 244, 244, 246, 247, 244, 247, 245, 245, 247, 248, 249, 132, 248, 248, 132, 245, 250, 122, 132, 132, 122, 121, 251, 250, 249, 249, 250, 132, 253, 251, 252, 252, 251, 249, 249, 248, 252, 252, 248, 254, 255, 256, 252, 252, 256, 253, 252, 254, 255, 255, 254, 257, 255, 257, 259, 259, 257, 258, 256, 255, 260, 260, 255, 259, 554, 555, 259, 259, 555, 260, 553, 554, 258, 258, 554, 259, 555, 556, 260, 260, 556, 264, 260, 264, 256, 256, 264, 266, 267, 253, 266, 266, 253, 256, 253, 267, 251, 251, 267, 250, 228, 268, 225, 225, 268, 269, 225, 269, 226, 226, 269, 270, 271, 227, 270, 270, 227, 226, 272, 231, 271, 271, 231, 227, 272, 273, 231, 231, 273, 234, 273, 274, 234, 234, 274, 240, 275, 274, 276, 276, 274, 273, 272, 277, 273, 273, 277, 276, 277, 272, 278, 278, 272, 271, 278, 271, 279, 279, 271, 270, 279, 270, 280, 280, 270, 269, 268, 281, 269, 269, 281, 280, 281, 282, 280, 280, 282, 283, 280, 283, 279, 279, 283, 284, 279, 284, 278, 278, 284, 285, 286, 277, 285, 285, 277, 278, 286, 287, 277, 277, 287, 276, 287, 288, 276, 276, 288, 275, 275, 288, 290, 290, 288, 289, 291, 292, 289, 289, 292, 290, 248, 247, 254, 254, 247, 293, 290, 294, 275, 275, 294, 274, 295, 240, 294, 294, 240, 274, 235, 240, 296, 296, 240, 295, 236, 235, 297, 297, 235, 296, 297, 298, 236, 236, 298, 239, 267, 299, 250, 250, 299, 122, 298, 300, 239, 239, 300, 242, 300, 301, 242, 242, 301, 246, 301, 293, 246, 246, 293, 247, 254, 293, 257, 257, 293, 302, 293, 301, 302, 302, 301, 303, 303, 301, 300, 303, 300, 298, 303, 298, 297, 303, 297, 296, 303, 296, 295, 292, 304, 290, 290, 304, 294, 304, 303, 294, 294, 303, 295, 282, 305, 283, 283, 305, 306, 283, 306, 284, 284, 306, 307, 284, 307, 285, 285, 307, 308, 309, 286, 308, 308, 286, 285, 309, 310, 286, 286, 310, 287, 310, 311, 287, 287, 311, 288, 311, 312, 288, 288, 312, 289, 313, 291, 312, 312, 291, 289, 305, 314, 306, 306, 314, 315, 306, 315, 307, 307, 315, 316, 307, 316, 308, 308, 316, 317, 308, 317, 309, 309, 317, 318, 309, 318, 310, 310, 318, 319, 320, 311, 319, 319, 311, 310, 320, 321, 311, 311, 321, 312, 322, 313, 321, 321, 313, 312, 314, 323, 315, 315, 323, 324, 316, 315, 325, 325, 315, 324, 317, 316, 326, 326, 316, 325, 317, 326, 318, 318, 326, 327, 318, 327, 319, 319, 327, 328, 329, 320, 328, 328, 320, 319, 320, 329, 321, 321, 329, 330, 321, 330, 322, 322, 330, 331, 323, 332, 324, 324, 332, 333, 324, 333, 325, 325, 333, 334, 325, 334, 326, 326, 334, 335, 337, 328, 336, 336, 328, 327, 326, 335, 327, 327, 335, 336, 338, 329, 337, 337, 329, 328, 339, 330, 338, 338, 330, 329, 340, 331, 339, 339, 331, 330, 341, 342, 340, 340, 342, 331, 331, 342, 322, 322, 342, 343, 313, 322, 344, 344, 322, 343, 346, 344, 345, 345, 344, 343, 342, 347, 343, 343, 347, 345, 348, 349, 332, 332, 349, 333, 349, 350, 333, 333, 350, 334, 334, 350, 335, 335, 350, 351, 335, 351, 336, 336, 351, 352, 336, 352, 337, 337, 352, 353, 338, 337, 339, 339, 337, 353, 354, 340, 353, 353, 340, 339, 340, 354, 341, 341, 354, 355, 342, 341, 347, 347, 341, 356, 341, 355, 356, 356, 355, 357, 347, 356, 358, 358, 356, 359, 345, 347, 360, 360, 347, 358, 346, 345, 361, 361, 345, 360, 291, 313, 362, 362, 313, 344, 362, 363, 291, 291, 363, 292, 363, 364, 292, 292, 364, 304, 302, 365, 257, 257, 365, 258, 362, 344, 366, 366, 344, 346, 366, 346, 367, 367, 346, 361, 365, 552, 258, 258, 552, 553, 369, 354, 352, 352, 354, 353, 370, 355, 369, 369, 355, 354, 371, 357, 370, 370, 357, 355, 372, 359, 357, 357, 359, 356, 373, 372, 371, 371, 372, 357, 351, 374, 352, 352, 374, 369, 370, 369, 375, 375, 369, 374, 370, 375, 371, 371, 375, 376, 377, 373, 376, 376, 373, 371, 381, 382, 493, 493, 382, 492, 380, 383, 823, 823, 383, 822, 490, 491, 384, 384, 491, 437, 820, 821, 385, 385, 821, 436, 489, 490, 386, 386, 490, 384, 819, 820, 387, 387, 820, 385, 488, 489, 440, 440, 489, 386, 818, 819, 441, 441, 819, 387, 388, 429, 827, 827, 429, 826, 827, 828, 388, 388, 828, 424, 496, 497, 428, 428, 497, 390, 498, 425, 497, 497, 425, 390, 393, 391, 500, 500, 391, 499, 389, 829, 392, 392, 829, 830, 540, 541, 459, 459, 541, 458, 461, 538, 460, 460, 538, 539, 502, 901, 472, 472, 901, 902, 266, 399, 267, 267, 399, 299, 462, 537, 461, 461, 537, 538, 534, 465, 533, 533, 465, 466, 532, 467, 531, 531, 467, 468, 531, 468, 530, 530, 468, 469, 470, 529, 469, 469, 529, 530, 28, 29, 89, 89, 29, 405, 29, 27, 405, 405, 27, 406, 406, 27, 407, 407, 27, 100, 407, 100, 408, 408, 100, 111, 122, 299, 111, 111, 299, 408, 409, 408, 399, 399, 408, 299, 408, 409, 407, 407, 409, 410, 407, 410, 406, 406, 410, 411, 406, 411, 405, 405, 411, 412, 405, 412, 89, 89, 412, 413, 413, 414, 89, 89, 414, 86, 414, 415, 86, 86, 415, 88, 88, 415, 87, 87, 415, 416, 830, 831, 392, 392, 831, 417, 500, 501, 393, 393, 501, 418, 541, 542, 458, 458, 542, 457, 900, 901, 572, 572, 901, 502, 264, 420, 266, 266, 420, 399, 556, 557, 264, 264, 557, 420, 420, 422, 399, 399, 422, 409, 558, 422, 557, 557, 422, 420, 424, 828, 389, 389, 828, 829, 498, 499, 425, 425, 499, 391, 460, 539, 459, 459, 539, 540, 465, 534, 464, 464, 534, 535, 381, 493, 434, 434, 493, 494, 824, 433, 823, 823, 433, 380, 826, 429, 825, 825, 429, 430, 431, 495, 428, 428, 495, 496, 463, 536, 462, 462, 536, 537, 825, 430, 824, 824, 430, 433, 434, 494, 431, 431, 494, 495, 464, 535, 463, 463, 535, 536, 821, 822, 436, 436, 822, 383, 491, 492, 437, 437, 492, 382, 533, 466, 532, 532, 466, 467, 471, 528, 470, 470, 528, 529, 487, 488, 378, 378, 488, 440, 817, 818, 379, 379, 818, 441, 443, 442, 920, 920, 442, 919, 444, 443, 921, 921, 443, 920, 921, 922, 444, 444, 922, 445, 922, 923, 445, 445, 923, 446, 924, 447, 923, 923, 447, 446, 925, 448, 924, 924, 448, 447, 448, 925, 449, 449, 925, 926, 449, 926, 450, 450, 926, 927, 450, 927, 451, 451, 927, 928, 451, 928, 452, 452, 928, 929, 452, 929, 453, 453, 929, 930, 454, 453, 931, 931, 453, 930, 931, 932, 454, 454, 932, 455, 932, 933, 455, 455, 933, 456, 457, 472, 458, 458, 472, 473, 458, 473, 459, 459, 473, 474, 475, 460, 474, 474, 460, 459, 476, 461, 475, 475, 461, 460, 477, 462, 476, 476, 462, 461, 478, 463, 477, 477, 463, 462, 479, 464, 478, 478, 464, 463, 480, 465, 479, 479, 465, 464, 465, 480, 466, 466, 480, 481, 466, 481, 467, 467, 481, 482, 467, 482, 468, 468, 482, 483, 468, 483, 469, 469, 483, 484, 485, 470, 484, 484, 470, 469, 486, 471, 485, 485, 471, 470, 472, 902, 473, 473, 902, 903, 473, 903, 474, 474, 903, 904, 905, 475, 904, 904, 475, 474, 906, 476, 905, 905, 476, 475, 907, 477, 906, 906, 477, 476, 908, 478, 907, 907, 478, 477, 909, 479, 908, 908, 479, 478, 910, 480, 909, 909, 480, 479, 480, 910, 481, 481, 910, 911, 481, 911, 482, 482, 911, 912, 482, 912, 483, 483, 912, 913, 483, 913, 484, 484, 913, 914, 915, 485, 914, 914, 485, 484, 916, 486, 915, 915, 486, 485, 488, 487, 441, 441, 487, 379, 489, 488, 387, 387, 488, 441, 490, 489, 385, 385, 489, 387, 491, 490, 436, 436, 490, 385, 492, 491, 383, 383, 491, 436, 493, 492, 380, 380, 492, 383, 494, 493, 433, 433, 493, 380, 494, 433, 495, 495, 433, 430, 496, 495, 429, 429, 495, 430, 497, 496, 388, 388, 496, 429, 498, 497, 424, 424, 497, 388, 499, 498, 389, 389, 498, 424, 500, 499, 392, 392, 499, 389, 500, 392, 501, 501, 392, 417, 504, 502, 457, 457, 502, 472, 572, 502, 571, 571, 502, 504, 542, 543, 457, 457, 543, 504, 571, 504, 570, 570, 504, 543, 409, 422, 410, 410, 422, 506, 559, 506, 558, 558, 506, 422, 410, 506, 411, 411, 506, 508, 560, 508, 559, 559, 508, 506, 411, 508, 412, 412, 508, 510, 561, 510, 560, 560, 510, 508, 412, 510, 413, 413, 510, 512, 561, 562, 510, 510, 562, 512, 512, 514, 413, 413, 514, 414, 562, 563, 512, 512, 563, 514, 514, 516, 414, 414, 516, 415, 564, 516, 563, 563, 516, 514, 415, 516, 416, 416, 516, 518, 565, 518, 564, 564, 518, 516, 831, 832, 417, 417, 832, 520, 832, 833, 520, 520, 833, 566, 417, 520, 501, 501, 520, 522, 567, 522, 566, 566, 522, 520, 501, 522, 418, 418, 522, 524, 568, 524, 567, 567, 524, 522, 933, 934, 456, 456, 934, 526, 934, 935, 526, 526, 935, 569, 528, 442, 529, 529, 442, 443, 529, 443, 530, 530, 443, 444, 445, 531, 444, 444, 531, 530, 446, 532, 445, 445, 532, 531, 447, 533, 446, 446, 533, 532, 448, 534, 447, 447, 534, 533, 534, 448, 535, 535, 448, 449, 535, 449, 536, 536, 449, 450, 536, 450, 537, 537, 450, 451, 537, 451, 538, 538, 451, 452, 538, 452, 539, 539, 452, 453, 539, 453, 540, 540, 453, 454, 454, 455, 540, 540, 455, 541, 455, 456, 541, 541, 456, 542, 456, 526, 542, 542, 526, 543, 570, 543, 569, 569, 543, 526, 816, 817, 545, 545, 817, 379, 545, 379, 546, 546, 379, 487, 378, 547, 487, 487, 547, 546, 471, 917, 528, 528, 917, 918, 918, 919, 528, 528, 919, 442, 916, 917, 486, 471, 486, 917, 366, 550, 362, 362, 550, 363, 550, 551, 363, 363, 551, 364, 552, 368, 553, 553, 368, 263, 554, 553, 261, 261, 553, 263, 262, 555, 261, 261, 555, 554, 265, 556, 262, 262, 556, 555, 421, 557, 265, 265, 557, 556, 423, 558, 421, 421, 558, 557, 507, 559, 423, 423, 559, 558, 509, 560, 507, 507, 560, 559, 511, 561, 509, 509, 561, 560, 513, 562, 511, 511, 562, 561, 563, 562, 515, 515, 562, 513, 517, 564, 515, 515, 564, 563, 519, 565, 517, 517, 565, 564, 566, 833, 521, 521, 833, 834, 523, 567, 521, 521, 567, 566, 525, 568, 523, 523, 568, 567, 527, 569, 936, 936, 569, 935, 544, 570, 527, 527, 570, 569, 505, 571, 544, 544, 571, 570, 503, 572, 505, 505, 572, 571, 899, 900, 503, 503, 900, 572, 367, 574, 366, 366, 574, 550, 574, 575, 550, 550, 575, 551, 577, 576, 348, 348, 576, 349, 576, 579, 349, 349, 579, 350, 351, 350, 374, 374, 350, 579, 580, 377, 581, 581, 377, 376, 375, 582, 376, 376, 582, 581, 582, 375, 579, 579, 375, 374, 578, 580, 583, 583, 580, 581, 584, 583, 582, 582, 583, 581, 579, 576, 582, 582, 576, 584, 577, 585, 576, 576, 585, 584, 586, 583, 585, 585, 583, 584, 549, 578, 586, 586, 578, 583, 897, 898, 588, 588, 898, 629, 588, 629, 589, 589, 629, 630, 589, 630, 590, 590, 630, 631, 590, 631, 591, 591, 631, 632, 937, 938, 632, 632, 938, 591, 592, 633, 593, 593, 633, 634, 593, 634, 594, 594, 634, 635, 835, 836, 635, 635, 836, 594, 595, 636, 596, 596, 636, 637, 596, 637, 597, 597, 637, 638, 597, 638, 598, 598, 638, 639, 599, 598, 640, 640, 598, 639, 599, 640, 600, 600, 640, 641, 600, 641, 601, 601, 641, 642, 601, 642, 602, 602, 642, 643, 602, 643, 603, 603, 643, 644, 603, 644, 604, 604, 644, 645, 604, 645, 605, 605, 645, 646, 606, 605, 647, 647, 605, 646, 607, 606, 648, 648, 606, 647, 607, 648, 608, 608, 648, 649, 610, 609, 652, 652, 609, 651, 610, 652, 653, 611, 610, 654, 654, 610, 653, 612, 611, 655, 655, 611, 654, 613, 612, 656, 656, 612, 655, 614, 613, 657, 657, 613, 656, 661, 616, 660, 660, 616, 615, 662, 617, 661, 661, 617, 616, 618, 599, 619, 619, 599, 600, 619, 600, 620, 620, 600, 601, 620, 601, 621, 621, 601, 602, 622, 621, 603, 603, 621, 602, 623, 622, 604, 604, 622, 603, 624, 623, 605, 605, 623, 604, 624, 605, 625, 625, 605, 606, 626, 625, 607, 607, 625, 606, 626, 607, 627, 627, 607, 608, 898, 899, 629, 629, 899, 503, 629, 503, 630, 630, 503, 505, 630, 505, 631, 631, 505, 544, 631, 544, 632, 632, 544, 527, 936, 937, 527, 527, 937, 632, 633, 525, 634, 634, 525, 523, 634, 523, 635, 635, 523, 521, 834, 835, 521, 521, 835, 635, 636, 519, 637, 637, 519, 517, 637, 517, 638, 638, 517, 515, 638, 515, 639, 639, 515, 513, 639, 513, 640, 640, 513, 511, 640, 511, 641, 641, 511, 509, 641, 509, 642, 642, 509, 507, 642, 507, 643, 643, 507, 423, 643, 423, 644, 644, 423, 421, 644, 421, 645, 645, 421, 265, 645, 265, 646, 646, 265, 262, 647, 646, 261, 261, 646, 262, 648, 647, 263, 263, 647, 261, 648, 263, 649, 649, 263, 368, 651, 650, 574, 574, 650, 575, 652, 651, 367, 367, 651, 574, 653, 652, 361, 361, 652, 367, 654, 653, 360, 360, 653, 361, 655, 654, 358, 358, 654, 360, 656, 655, 359, 359, 655, 358, 657, 656, 372, 372, 656, 359, 658, 657, 373, 373, 657, 372, 659, 658, 377, 377, 658, 373, 660, 659, 580, 580, 659, 377, 661, 660, 578, 578, 660, 580, 662, 661, 549, 549, 661, 578, 365, 302, 663, 663, 302, 303, 303, 304, 663, 663, 304, 364, 552, 365, 664, 664, 365, 663, 364, 551, 663, 663, 551, 664, 368, 552, 665, 665, 552, 664, 551, 575, 664, 664, 575, 665, 665, 575, 666, 666, 575, 650, 665, 666, 368, 368, 666, 649, 667, 650, 609, 609, 650, 651, 650, 667, 666, 666, 667, 668, 666, 668, 649, 649, 668, 608, 627, 608, 669, 669, 608, 668, 669, 668, 670, 670, 668, 667, 611, 667, 610, 610, 667, 609, 667, 611, 670, 670, 611, 671, 672, 671, 612, 612, 671, 611, 673, 672, 613, 613, 672, 612, 613, 614, 673, 673, 614, 674, 598, 599, 597, 599, 618, 597, 597, 618, 596, 618, 595, 596, 837, 593, 836, 836, 593, 594, 837, 838, 593, 593, 838, 592, 939, 839, 938, 938, 839, 591, 839, 840, 591, 591, 840, 590, 618, 619, 679, 679, 619, 678, 618, 679, 675, 675, 679, 680, 942, 681, 941, 941, 681, 676, 676, 681, 677, 677, 681, 682, 840, 841, 590, 590, 841, 589, 677, 682, 683, 683, 682, 684, 681, 685, 682, 682, 685, 686, 684, 682, 687, 687, 682, 686, 678, 688, 679, 679, 688, 689, 689, 690, 679, 679, 690, 680, 685, 681, 943, 943, 681, 942, 692, 896, 588, 588, 896, 897, 589, 693, 588, 588, 693, 692, 589, 841, 693, 693, 841, 842, 694, 683, 695, 695, 683, 684, 684, 687, 695, 695, 687, 696, 895, 896, 698, 698, 896, 692, 701, 702, 699, 699, 702, 700, 693, 703, 692, 692, 703, 698, 843, 703, 842, 842, 703, 693, 704, 694, 705, 705, 694, 695, 695, 696, 705, 705, 696, 706, 686, 685, 707, 707, 685, 689, 686, 707, 687, 707, 696, 687, 708, 707, 688, 688, 707, 689, 709, 706, 707, 707, 706, 696, 690, 689, 943, 943, 689, 685, 711, 709, 710, 710, 709, 707, 708, 712, 707, 707, 712, 710, 714, 711, 713, 713, 711, 710, 713, 710, 715, 715, 710, 712, 716, 717, 715, 715, 717, 713, 718, 714, 717, 717, 714, 713, 844, 719, 843, 843, 719, 703, 721, 720, 705, 705, 720, 704, 699, 845, 701, 701, 845, 846, 719, 844, 699, 699, 844, 845, 720, 721, 722, 722, 721, 724, 726, 724, 725, 725, 724, 721, 725, 721, 706, 706, 721, 705, 706, 709, 725, 725, 709, 726, 727, 723, 724, 724, 723, 722, 728, 727, 726, 726, 727, 724, 729, 728, 709, 709, 728, 726, 730, 729, 711, 711, 729, 709, 731, 730, 714, 714, 730, 711, 732, 731, 718, 718, 731, 714, 754, 755, 734, 734, 755, 733, 735, 733, 756, 756, 733, 755, 736, 735, 757, 757, 735, 756, 757, 758, 736, 736, 758, 737, 758, 759, 737, 737, 759, 738, 759, 760, 738, 738, 760, 739, 753, 847, 740, 740, 847, 848, 752, 753, 741, 741, 753, 740, 742, 698, 719, 719, 698, 703, 719, 699, 742, 742, 699, 700, 894, 895, 742, 742, 895, 698, 893, 894, 700, 700, 894, 742, 735, 745, 733, 733, 745, 746, 735, 736, 745, 745, 736, 747, 748, 747, 737, 737, 747, 736, 749, 748, 738, 738, 748, 737, 750, 749, 739, 739, 749, 738, 734, 733, 751, 751, 733, 746, 848, 849, 740, 849, 741, 740, 753, 752, 701, 701, 752, 702, 847, 753, 846, 846, 753, 701, 755, 754, 727, 727, 754, 723, 756, 755, 728, 728, 755, 727, 757, 756, 729, 729, 756, 728, 729, 730, 757, 757, 730, 758, 730, 731, 758, 758, 731, 759, 731, 732, 759, 759, 732, 760, 621, 678, 620, 678, 619, 620, 615, 616, 762, 762, 616, 761, 763, 761, 617, 617, 761, 616, 763, 764, 761, 761, 764, 765, 763, 766, 764, 764, 766, 767, 769, 768, 767, 767, 768, 764, 766, 770, 767, 767, 770, 771, 772, 769, 771, 771, 769, 767, 768, 769, 774, 774, 769, 773, 774, 773, 776, 776, 773, 775, 769, 772, 773, 773, 772, 777, 773, 777, 775, 775, 777, 778, 780, 776, 779, 779, 776, 775, 775, 778, 779, 779, 778, 781, 779, 782, 780, 780, 782, 783, 784, 782, 781, 781, 782, 779, 765, 764, 785, 785, 764, 768, 785, 768, 786, 786, 768, 774, 786, 774, 787, 787, 774, 776, 789, 788, 806, 806, 788, 805, 788, 789, 791, 791, 789, 790, 791, 790, 708, 708, 790, 712, 623, 678, 622, 622, 678, 621, 678, 623, 792, 792, 623, 624, 626, 792, 625, 624, 625, 792, 792, 793, 678, 678, 793, 688, 708, 688, 791, 791, 688, 793, 626, 627, 792, 792, 627, 793, 794, 614, 658, 658, 614, 657, 658, 659, 794, 794, 659, 795, 660, 615, 659, 659, 615, 795, 795, 615, 796, 796, 615, 762, 795, 796, 794, 794, 796, 797, 794, 797, 614, 614, 797, 674, 798, 799, 762, 762, 799, 796, 671, 800, 670, 800, 669, 670, 673, 800, 672, 671, 672, 800, 674, 799, 673, 673, 799, 800, 796, 799, 797, 799, 674, 797, 762, 761, 798, 798, 761, 765, 798, 765, 801, 801, 765, 785, 799, 798, 802, 802, 798, 801, 803, 800, 802, 802, 800, 799, 669, 800, 627, 627, 800, 803, 793, 627, 804, 803, 804, 627, 791, 793, 788, 788, 793, 804, 803, 805, 804, 804, 805, 788, 806, 805, 787, 787, 805, 786, 786, 802, 785, 785, 802, 801, 805, 803, 786, 786, 803, 802, 770, 807, 771, 771, 807, 772, 777, 772, 808, 808, 772, 807, 808, 809, 777, 777, 809, 778, 809, 810, 778, 778, 810, 781, 810, 811, 781, 781, 811, 784, 776, 780, 787, 787, 780, 812, 787, 812, 806, 789, 806, 812, 813, 790, 812, 812, 790, 789, 790, 813, 712, 712, 813, 715, 783, 814, 780, 780, 814, 812, 812, 814, 813, 813, 814, 815, 813, 815, 715, 715, 815, 716, 817, 816, 860, 860, 816, 859, 860, 861, 817, 817, 861, 818, 861, 862, 818, 818, 862, 819, 862, 863, 819, 819, 863, 820, 863, 864, 820, 820, 864, 821, 864, 865, 821, 821, 865, 822, 823, 822, 866, 866, 822, 865, 867, 824, 866, 866, 824, 823, 868, 825, 867, 867, 825, 824, 869, 826, 868, 868, 826, 825, 827, 826, 870, 870, 826, 869, 870, 871, 827, 827, 871, 828, 829, 828, 872, 872, 828, 871, 830, 829, 873, 873, 829, 872, 831, 830, 874, 874, 830, 873, 875, 832, 874, 874, 832, 831, 876, 833, 875, 875, 833, 832, 833, 876, 834, 834, 876, 877, 877, 878, 834, 834, 878, 835, 878, 879, 835, 835, 879, 836, 880, 837, 879, 879, 837, 836, 880, 881, 837, 837, 881, 838, 940, 882, 939, 939, 882, 839, 882, 883, 839, 839, 883, 840, 883, 884, 840, 840, 884, 841, 841, 884, 842, 842, 884, 885, 886, 843, 885, 885, 843, 842, 887, 844, 886, 886, 844, 843, 844, 887, 845, 845, 887, 888, 845, 888, 846, 846, 888, 889, 890, 847, 889, 889, 847, 846, 847, 890, 848, 848, 890, 891, 892, 849, 891, 891, 849, 848, 181, 850, 174, 174, 850, 199, 175, 851, 181, 181, 851, 850, 851, 175, 852, 852, 175, 176, 177, 853, 176, 176, 853, 852, 177, 178, 853, 853, 178, 854, 178, 179, 854, 854, 179, 180, 850, 855, 199, 199, 855, 197, 855, 856, 197, 197, 856, 224, 856, 857, 224, 224, 857, 228, 857, 858, 228, 228, 858, 268, 860, 859, 73, 73, 859, 72, 861, 860, 74, 74, 860, 73, 862, 861, 75, 75, 861, 74, 863, 862, 76, 76, 862, 75, 864, 863, 77, 77, 863, 76, 865, 864, 196, 196, 864, 77, 866, 865, 78, 78, 865, 196, 79, 867, 78, 78, 867, 866, 202, 868, 79, 79, 868, 867, 156, 869, 202, 202, 869, 868, 869, 156, 870, 870, 156, 81, 871, 870, 83, 83, 870, 81, 872, 871, 85, 85, 871, 83, 873, 872, 87, 87, 872, 85, 874, 873, 416, 416, 873, 87, 416, 518, 874, 874, 518, 875, 876, 875, 565, 565, 875, 518, 876, 565, 877, 877, 565, 519, 878, 877, 636, 636, 877, 519, 879, 878, 595, 595, 878, 636, 618, 880, 595, 595, 880, 879, 881, 880, 675, 675, 880, 618, 882, 940, 676, 676, 940, 941, 677, 883, 676, 676, 883, 882, 683, 884, 677, 677, 884, 883, 884, 683, 885, 885, 683, 694, 704, 886, 694, 694, 886, 885, 720, 887, 704, 704, 887, 886, 887, 720, 888, 888, 720, 722, 888, 722, 889, 889, 722, 723, 754, 890, 723, 723, 890, 889, 890, 754, 891, 891, 754, 734, 751, 892, 734, 734, 892, 891, 893, 744, 894, 744, 743, 894, 895, 894, 697, 697, 894, 743, 895, 697, 896, 896, 697, 691, 896, 691, 897, 897, 691, 587, 898, 897, 628, 628, 897, 587, 899, 898, 397, 397, 898, 628, 900, 899, 573, 573, 899, 397, 419, 901, 573, 573, 901, 900, 902, 901, 398, 398, 901, 419, 902, 398, 903, 903, 398, 394, 903, 394, 904, 904, 394, 395, 426, 905, 395, 395, 905, 904, 906, 905, 396, 396, 905, 426, 907, 906, 427, 427, 906, 396, 432, 908, 427, 427, 908, 907, 435, 909, 432, 432, 909, 908, 400, 910, 435, 435, 910, 909, 910, 400, 911, 911, 400, 401, 912, 911, 438, 438, 911, 401, 912, 438, 913, 913, 438, 402, 913, 402, 914, 914, 402, 403, 439, 915, 403, 403, 915, 914, 404, 916, 439, 439, 916, 915, 916, 404, 917, 917, 404, 548, 917, 548, 918, 918, 548, 547, 919, 918, 378, 378, 918, 547, 920, 919, 440, 440, 919, 378, 921, 920, 386, 386, 920, 440, 922, 921, 384, 384, 921, 386, 923, 922, 437, 437, 922, 384, 924, 923, 382, 382, 923, 437, 925, 924, 381, 381, 924, 382, 925, 381, 926, 926, 381, 434, 926, 434, 927, 927, 434, 431, 927, 431, 928, 928, 431, 428, 929, 928, 390, 390, 928, 428, 929, 390, 930, 930, 390, 425, 930, 425, 931, 931, 425, 391, 393, 932, 391, 391, 932, 931, 393, 418, 932, 932, 418, 933, 418, 524, 933, 933, 524, 934, 935, 934, 568, 568, 934, 524, 936, 935, 525, 525, 935, 568, 937, 936, 633, 633, 936, 525, 938, 937, 592, 592, 937, 633, 838, 939, 592, 592, 939, 938, 881, 940, 838, 838, 940, 939, 940, 881, 941, 941, 881, 675, 675, 680, 941, 941, 680, 942, 943, 942, 690, 690, 942, 680]
  }
}