{
  "layers": [
    {
      "opacity": 1.0, 
      "name": "Base Weights", 
      "enabled": true, 
      "mask": [], 
      "influences": [
        {
          "index": 61, 
          "weights": [0.2264355719089508, 0.22742262482643127, 0.12140655517578125, 0.1420445293188095, 0.08477462083101273, 0.21571135520935059, 0.18753491342067719, 0.08560672402381897, 0.10570221394300461, 0.20264855027198792, 0.2452990561723709, 0.16298356652259827, 0.20904095470905304, 0.28244689106941223, 0.3262905776500702, 0.23199695348739624, 0.25097760558128357, 0.3268947899341583, 0.35252463817596436, 0.2545929253101349, 0.2926347255706787, 0.35803842544555664, 0.3785123825073242, 0.31020599603652954, 0.327705979347229, 0.39519619941711426, 0.40757906436920166, 0.364994078874588, 0.3873772919178009, 0.4129613935947418, 0.4133950173854828, 0.39638790488243103, 0.3612235486507416, 0.4095330834388733, 0.36253196001052856, 0.2812897562980652, 0.1953977346420288, 0.2661633789539337, 0.21750451624393463, 0.12822860479354858, 0.06304970383644104, 0.14074069261550903, 0.05050866678357124, 0.09571315348148346, 0.032836880534887314, 0.07177379727363586, 0.05278647691011429, 0.029009686782956123, 0.01915765553712845, 0.04367397725582123, 0.03976953774690628, 0.021660026162862778, 0.01683063432574272, 0.03770485520362854, 0.040177058428525925, 0.021379414945840836, 0.020040100440382957, 0.05227223038673401, 0.0626022070646286, 0.030817219987511635, 0.035031456500291824, 0.08371119201183319, 0.12152408063411713, 0.05597668141126633, 0.09358356893062592, 0.14918869733810425, 0.17238828539848328, 0.12598717212677002, 0.13015075027942657, 0.19796520471572876, 0.2117081731557846, 0.14780856668949127, 0.21279773116111755, 0.16121844947338104, 0.21838344633579254, 0.1571563482284546, 0.18517276644706726, 0.15146498382091522, 0.12951591610908508, 0.15758240222930908, 0.21386340260505676, 0.23614153265953064, 0.27631476521492004, 0.28095176815986633, 0.3071229159832001, 0.3374415934085846, 0.34755799174308777, 0.3635956346988678, 0.39191368222236633, 0.3995787501335144, 0.40646180510520935, 0.37864920496940613, 0.3031124472618103, 0.21563191711902618, 0.17634011805057526, 0.09398715943098068, 0.08518499881029129, 0.05520468205213547, 0.04262998327612877, 0.03341875970363617, 0.035187967121601105, 0.02984079159796238, 0.03313198685646057, 0.03842660039663315, 0.04915408045053482, 0.05431807041168213, 0.08839678019285202, 0.13213452696800232, 0.15700791776180267, 0.1621154397726059, 0.18456779420375824, 0.18842190504074097, 0.18531760573387146, 0.17840780317783356], 
          "name": "|root|c_pelvis_result_jnt|c_spineA_result_jnt|c_spineB_result_jnt|c_spineC_result_jnt|c_spineD_result_jnt|c_spineE_result_jnt|c_spineF_result_jnt|r_clavicle_result_jnt|r_armUpper_result_jnt|r_armLower_result_jnt"
        }, 
        {
          "index": 62, 
          "weights": [0.694139301776886, 0.6594788432121277, 0.7306597232818604, 0.7568339705467224, 0.7123579382896423, 0.6422193050384521, 0.6216463446617126, 0.6873317360877991, 0.6546332240104675, 0.5817418694496155, 0.5354007482528687, 0.5928722620010376, 0.53379225730896, 0.4922467768192291, 0.4536886215209961, 0.4930584132671356, 0.4666826128959656, 0.4418800473213196, 0.4485757350921631, 0.46707212924957275, 0.47582530975341797, 0.4629723131656647, 0.47989875078201294, 0.5096406936645508, 0.5238819122314453, 0.4945208430290222, 0.5020424127578735, 0.5112658739089966, 0.5069963932037354, 0.5091850161552429, 0.5141863822937012, 0.5063939690589905, 0.530009925365448, 0.5150166749954224, 0.527418851852417, 0.5776111483573914, 0.6314937472343445, 0.5753459930419922, 0.6095909476280212, 0.6666718125343323, 0.6878818273544312, 0.6549262404441833, 0.6532482504844666, 0.6667187809944153, 0.6242688894271851, 0.6488596200942993, 0.582604169845581, 0.5818783044815063, 0.5300231575965881, 0.5320680737495422, 0.5270026326179504, 0.5048790574073792, 0.49864786863327026, 0.5344278812408447, 0.5304067730903625, 0.49850377440452576, 0.4992493987083435, 0.5426368117332458, 0.5438447594642639, 0.5096828937530518, 0.5400480628013611, 0.5900713205337524, 0.662426769733429, 0.5903648138046265, 0.6845357418060303, 0.7086457014083862, 0.7235272526741028, 0.7491195201873779, 0.7848688364028931, 0.7373051643371582, 0.7422923445701599, 0.7788932919502258, 0.7370461821556091, 0.7723695039749146, 0.7191078066825867, 0.7651931047439575, 0.6919339299201965, 0.6716815829277039, 0.6469077467918396, 0.612802267074585, 0.5534404516220093, 0.5216687917709351, 0.47672298550605774, 0.45453423261642456, 0.4518701434135437, 0.46570199728012085, 0.48708686232566833, 0.5051756501197815, 0.5014124512672424, 0.5062301158905029, 0.5067080855369568, 0.5228972434997559, 0.5569941997528076, 0.6113851070404053, 0.6324341893196106, 0.6700637936592102, 0.6547256708145142, 0.6287402510643005, 0.5761033892631531, 0.5324414372444153, 0.5109357833862305, 0.5118773579597473, 0.5078253746032715, 0.5138906836509705, 0.5121177434921265, 0.5483230352401733, 0.6253548264503479, 0.7037000060081482, 0.7268782258033752, 0.7534002661705017, 0.7538434863090515, 0.7528499364852905, 0.7395783066749573, 0.7279271483421326], 
          "name": "|root|c_pelvis_result_jnt|c_spineA_result_jnt|c_spineB_result_jnt|c_spineC_result_jnt|c_spineD_result_jnt|c_spineE_result_jnt|c_spineF_result_jnt|r_clavicle_result_jnt|r_armUpper_result_jnt|r_armLower_result_jnt|r_armEnd_result_jnt"
        }, 
        {
          "index": 63, 
          "weights": [0.0738145112991333, 0.10913295298814774, 0.14298352599143982, 0.09269772469997406, 0.19977401196956635, 0.13885672390460968, 0.18697452545166016, 0.22375042736530304, 0.23595868051052094, 0.21122302114963531, 0.213872492313385, 0.23916840553283691, 0.2509461045265198, 0.2182549685239792, 0.21235491335391998, 0.26746800541877747, 0.27163100242614746, 0.22165760397911072, 0.18810416758060455, 0.2630435824394226, 0.2115149199962616, 0.16526921093463898, 0.12476427853107452, 0.1564587950706482, 0.1197350025177002, 0.09012384712696075, 0.06445205956697464, 0.0841829851269722, 0.05658238008618355, 0.044472891837358475, 0.028321215882897377, 0.03567196801304817, 0.023019835352897644, 0.01801089383661747, 0.01584438420832157, 0.015566261485219002, 0.00869265291839838, 0.010411705821752548, 0.005687955301254988, 0.0046172235161066055, 0.002358936471864581, 0.0038001048378646374, 0.0020890580490231514, 0.0024969251826405525, 0.0012973209377378225, 0.0015207324177026749, 0.00162035902030766, 0.0013643661513924599, 0.001307080965489149, 0.002038196660578251, 0.0021781246177852154, 0.001885062549263239, 0.0018314106855541468, 0.00210608821362257, 0.002887978218495846, 0.0025308290496468544, 0.002284297486767173, 0.002834730315953493, 0.003915339708328247, 0.0035629624035209417, 0.005463185254484415, 0.005743433255702257, 0.007279371377080679, 0.008596610277891159, 0.01151829119771719, 0.007602842990309, 0.011940083466470242, 0.015872329473495483, 0.024060819298028946, 0.016893507912755013, 0.02399606630206108, 0.03332231938838959, 0.0385143980383873, 0.0457029826939106, 0.05443597584962845, 0.06524314731359482, 0.11778134107589722, 0.1730482280254364, 0.21940523386001587, 0.22526419162750244, 0.22693583369255066, 0.23527437448501587, 0.23924022912979126, 0.2548556625843048, 0.2272123247385025, 0.17850346863269806, 0.14312106370925903, 0.10320477932691574, 0.06966491043567657, 0.049639441072940826, 0.03273128718137741, 0.021856000646948814, 0.016016697511076927, 0.009775811806321144, 0.005552863236516714, 0.0032221057917922735, 0.002997679403051734, 0.0017914955969899893, 0.0017870910232886672, 0.0018651436548680067, 0.002531709847971797, 0.0025564234238117933, 0.0035798712633550167, 0.003187800757586956, 0.004273281432688236, 0.0056630284525454044, 0.008888007141649723, 0.0105484239757061, 0.014814320020377636, 0.020897476002573967, 0.029563073068857193, 0.04325362667441368, 0.06440991908311844, 0.0864502415060997], 
          "name": "|root|c_pelvis_result_jnt|c_spineA_result_jnt|c_spineB_result_jnt|c_spineC_result_jnt|c_spineD_result_jnt|c_spineE_result_jnt|c_spineF_result_jnt|r_clavicle_result_jnt|r_armUpper_result_jnt|r_armLower_result_jnt|r_armEnd_result_jnt|r_handCup_result_jnt"
        }, 
        {
          "index": 80, 
          "weights": [0.00561063177883625, 0.003965578507632017, 0.004950173664838076, 0.00842379592359066, 0.003093456383794546, 0.003212594659999013, 0.0038442215882241726, 0.0033110862132161856, 0.0037058477755635977, 0.004386554006487131, 0.005427698604762554, 0.004975756164640188, 0.006220674607902765, 0.0070513770915567875, 0.0076659019105136395, 0.007476650644093752, 0.010708758607506752, 0.009567569009959698, 0.010795459151268005, 0.01529134064912796, 0.02002502605319023, 0.013720030896365643, 0.01682460866868496, 0.023694494739174843, 0.028677131980657578, 0.020159117877483368, 0.025926457718014717, 0.03955702483654022, 0.049043912440538406, 0.0333806648850441, 0.04409739002585411, 0.061546146869659424, 0.08574669808149338, 0.057439371943473816, 0.09420482814311981, 0.1255328357219696, 0.16441583633422852, 0.14807894825935364, 0.16721658408641815, 0.20048238337039948, 0.24670951068401337, 0.2005329579114914, 0.29415401816368103, 0.23507113754749298, 0.34159693121910095, 0.2778458893299103, 0.36298897862434387, 0.3877476751804352, 0.4495121240615845, 0.42221978306770325, 0.4310497045516968, 0.47157585620880127, 0.48269009590148926, 0.4257611930370331, 0.4265281856060028, 0.47758597135543823, 0.4784262180328369, 0.40225622057914734, 0.38963767886161804, 0.45593690872192383, 0.4194573163986206, 0.3204740583896637, 0.2087697833776474, 0.34506189823150635, 0.21036240458488464, 0.13456279039382935, 0.09214436262845993, 0.10902098566293716, 0.06091959774494171, 0.04783615469932556, 0.02200344391167164, 0.039975784718990326, 0.011641668155789375, 0.02070903591811657, 0.008072788827121258, 0.01240738108754158, 0.005111973267048597, 0.0038052164018154144, 0.004171104170382023, 0.004351108800619841, 0.005760313011705875, 0.006915304809808731, 0.007721990812569857, 0.009658320806920528, 0.01379462145268917, 0.018352938815951347, 0.022234098985791206, 0.028023945167660713, 0.03700897842645645, 0.04455168545246124, 0.05409883335232735, 0.07659755647182465, 0.12387668341398239, 0.16320718824863434, 0.1856728345155716, 0.23272691667079926, 0.2570916414260864, 0.31426355242729187, 0.3794795572757721, 0.43227463960647583, 0.4513445794582367, 0.45572546124458313, 0.4554627537727356, 0.44449493288993835, 0.43445491790771484, 0.39169588685035706, 0.27736037969589233, 0.1536170095205307, 0.10129954665899277, 0.06358680129051208, 0.03202566131949425, 0.015474553219974041, 0.010694160126149654, 0.007214827928692102], 
          "name": "|root|c_pelvis_result_jnt|c_spineA_result_jnt|c_spineB_result_jnt|c_spineC_result_jnt|c_spineD_result_jnt|c_spineE_result_jnt|c_spineF_result_jnt|r_clavicle_result_jnt|r_armUpper_result_jnt|r_armLower_result_jnt|r_armEnd_result_jnt|r_thumbFA_result_jnt"
        }], 
      "dqWeights": []
    }], 
  "influences": {
    "80": {
      "path": "|root|c_pelvis_result_jnt|c_spineA_result_jnt|c_spineB_result_jnt|c_spineC_result_jnt|c_spineD_result_jnt|c_spineE_result_jnt|c_spineF_result_jnt|r_clavicle_result_jnt|r_armUpper_result_jnt|r_armLower_result_jnt|r_armEnd_result_jnt|r_thumbFA_result_jnt", 
      "pivot": [-58.01819999999999, 138.29000000000002, 1.6836000000000135], 
      "index": 80
    }, 
    "61": {
      "path": "|root|c_pelvis_result_jnt|c_spineA_result_jnt|c_spineB_result_jnt|c_spineC_result_jnt|c_spineD_result_jnt|c_spineE_result_jnt|c_spineF_result_jnt|r_clavicle_result_jnt|r_armUpper_result_jnt|r_armLower_result_jnt", 
      "pivot": [-36.35200000000002, 139.08300000000008, -4.419009999999997], 
      "index": 61
    }, 
    "62": {
      "path": "|root|c_pelvis_result_jnt|c_spineA_result_jnt|c_spineB_result_jnt|c_spineC_result_jnt|c_spineD_result_jnt|c_spineE_result_jnt|c_spineF_result_jnt|r_clavicle_result_jnt|r_armUpper_result_jnt|r_armLower_result_jnt|r_armEnd_result_jnt", 
      "pivot": [-56.9946, 138.56299999999996, -0.21274299999999963], 
      "index": 62
    }, 
    "63": {
      "path": "|root|c_pelvis_result_jnt|c_spineA_result_jnt|c_spineB_result_jnt|c_spineC_result_jnt|c_spineD_result_jnt|c_spineE_result_jnt|c_spineF_result_jnt|r_clavicle_result_jnt|r_armUpper_result_jnt|r_armLower_result_jnt|r_armEnd_result_jnt|r_handCup_result_jnt", 
      "pivot": [-59.32800000000001, 138.86700000000002, -0.2526380000000013], 
      "index": 63
    }
  }, 
  "meshInfo": {
    "verts": [-57.61421203613281, 139.80819702148438, -0.9155420064926147, -57.51092529296875, 139.57391357421875, -1.3467960357666016, -58.30266571044922, 139.64700317382812, -1.0077760219573975, -57.9714469909668, 139.8196563720703, -0.7858700156211853, -58.25786590576172, 139.4403533935547, -1.3695440292358398, -57.84966278076172, 139.40065002441406, -1.5463579893112183, -57.73915100097656, 139.1625518798828, -1.7840080261230469, -58.48900604248047, 139.1947479248047, -1.5103360414505005, -58.41359329223633, 138.8990936279297, -1.8759479522705078, -57.963340759277344, 138.91519165039062, -1.9960960149765015, -57.735382080078125, 138.58889770507812, -2.237252712249756, -58.49089813232422, 138.54188537597656, -2.0741701126098633, -58.33636474609375, 138.1527862548828, -2.2054550647735596, -58.000892639160156, 138.16287231445312, -2.318882942199707, -57.74822235107422, 137.88291931152344, -2.2453479766845703, -58.480690002441406, 137.83673095703125, -2.059911012649536, -58.353126525878906, 137.4562225341797, -2.133208990097046, -57.992576599121094, 137.4647979736328, -2.221930980682373, -57.70517349243164, 137.2925567626953, -1.9815101623535156, -58.529930114746094, 137.0809783935547, -1.9486552476882935, -58.261375427246094, 136.8097381591797, -1.8242000341415405, -57.817317962646484, 136.92637634277344, -1.8977559804916382, -57.53134536743164, 136.822998046875, -1.632256031036377, -58.34963607788086, 136.7642059326172, -1.3875329494476318, -58.061519622802734, 136.63661193847656, -1.0946190357208252, -57.60161209106445, 136.6515655517578, -1.3079379796981812, -57.30103302001953, 136.61761474609375, -1.083691954612732, -58.08485412597656, 136.5284423828125, -0.7236179709434509, -57.80065155029297, 136.5407257080078, -0.4971719980239868, -57.323448181152344, 136.52587890625, -0.7600340247154236, -57.04692077636719, 136.47694396972656, -0.5725529789924622, -57.80791473388672, 136.56166076660156, -0.1651259958744049, -57.505287170410156, 136.54998779296875, 0.044817399233579636, -57.058372497558594, 136.49978637695312, -0.19136929512023926, -56.79197311401367, 136.5489044189453, 0.05818270146846771, -57.452659606933594, 136.63345336914062, 0.42395299673080444, -57.21441650390625, 136.6291961669922, 0.6241850256919861, -56.898529052734375, 136.61929321289062, 0.48290500044822693, -56.571075439453125, 136.89259338378906, 0.7492982149124146, -57.334861755371094, 136.74664306640625, 0.9999459981918335, -57.06191635131836, 136.90841674804688, 1.2481939792633057, -56.65606689453125, 136.90045166015625, 1.1811405420303345, -57.19297409057617, 137.0772247314453, 1.5722179412841797, -56.35694122314453, 137.16250610351562, 1.4082310199737549, -56.91862487792969, 137.3461151123047, 1.8464689254760742, -56.49077224731445, 137.3408660888672, 1.6878609657287598, -56.25658416748047, 137.64601135253906, 1.8366210460662842, -57.053253173828125, 137.53297424316406, 2.0746328830718994, -56.90256118774414, 137.91604614257812, 2.2204604148864746, -56.4139289855957, 137.9703826904297, 2.069977045059204, -56.24615478515625, 138.28515625, 2.1007080078125, -57.058834075927734, 138.17774963378906, 2.400294065475464, -56.87276840209961, 138.51438903808594, 2.4637200832366943, -56.39176559448242, 138.5214080810547, 2.270850896835327, -56.26689910888672, 138.87258911132812, 2.174546957015991, -57.04204559326172, 138.80709838867188, 2.5236949920654297, -56.956546783447266, 139.1537322998047, 2.3641340732574463, -56.52299880981445, 139.20263671875, 2.118272304534912, -56.478553771972656, 139.43565368652344, 1.8448619842529297, -57.24797058105469, 139.3919219970703, 2.2446980476379395, -57.16119384765625, 139.67208862304688, 1.9166719913482666, -56.76826858520508, 139.6744384765625, 1.7565089464187622, -56.740020751953125, 139.76995849609375, 1.278228998184204, -57.4594612121582, 139.77146911621094, 1.7619080543518066, -57.388824462890625, 139.87806701660156, 1.276918888092041, -57.05538558959961, 139.88917541503906, 1.1463379859924316, -56.95185089111328, 139.90969848632812, 0.7977020144462585, -57.70280456542969, 139.90591430664062, 0.9674450159072876, -57.58999252319336, 139.96759033203125, 0.5860360264778137, -57.27824401855469, 139.93984985351562, 0.4566980004310608, -57.16139602661133, 139.93161010742188, 0.05979299917817116, -57.90167999267578, 139.94265747070312, 0.3490009903907776, -57.47270965576172, 139.9667510986328, -0.21804000437259674, -57.759307861328125, 139.97743225097656, -0.13622799515724182, -57.287025451660156, 139.84161376953125, -0.7115790247917175, -58.066829681396484, 139.9085693359375, -0.3609279990196228, -57.98038101196289, 139.9803009033203, -1.384594440460205, -58.064109802246094, 139.43162536621094, -1.4632595777511597, -58.21928787231445, 139.45941162109375, -1.9225916862487793, -58.20728302001953, 138.9368438720703, -1.9699503183364868, -58.226200103759766, 138.72474670410156, -2.5224668979644775, -58.21458053588867, 138.1497039794922, -2.4104275703430176, -58.2299919128418, 137.800537109375, -2.5452022552490234, -58.17963409423828, 137.46035766601562, -2.17588210105896, -58.126564025878906, 136.9971923828125, -2.3171839714050293, -58.045997619628906, 136.83799743652344, -1.8852370977401733, -57.95929718017578, 136.39889526367188, -1.638366460800171, -57.845096588134766, 136.56410217285156, -1.2239924669265747, -57.71424102783203, 136.16024780273438, -0.9725637435913086, -57.57938766479492, 136.35711669921875, -0.6365808844566345, -57.476959228515625, 136.0942840576172, -0.3503762483596802, -57.29475402832031, 136.42141723632812, -0.054690927267074585, -57.143951416015625, 136.17767333984375, 0.3153720200061798, -57.06079864501953, 136.6112518310547, 0.5600723028182983, -56.878013610839844, 136.44149780273438, 1.009865641593933, -56.86978530883789, 136.9217529296875, 1.2083765268325806, -56.716041564941406, 136.78538513183594, 1.7365434169769287, -56.70116424560547, 137.31033325195312, 1.8012189865112305, -56.54741668701172, 137.37051391601562, 2.2788822650909424, -56.6081428527832, 137.8721466064453, 2.3031654357910156, -56.51780700683594, 138.0795135498047, 2.625795841217041, -56.60125732421875, 138.5019073486328, 2.465576648712158, -56.50634002685547, 138.9315643310547, 2.7266716957092285, -56.72789764404297, 139.20863342285156, 2.290065288543701, -56.7502555847168, 139.70358276367188, 2.3365066051483154, -56.96425247192383, 139.7022705078125, 1.8560795783996582, -57.05154037475586, 140.1684112548828, 1.6387076377868652, -57.224639892578125, 139.9278106689453, 1.2222237586975098, -57.32844161987305, 140.3375244140625, 0.9255902171134949, -57.43761444091797, 140.0232696533203, 0.5257350206375122, -57.532127380371094, 140.35238647460938, 0.21460820734500885, -57.6209602355957, 140.02325439453125, -0.1801430583000183, -57.701107025146484, 140.29385375976562, -0.6244083046913147, -57.802791595458984, 139.854736328125, -0.863142728805542], 
    "triangles": [76, 2, 113, 113, 2, 3, 76, 77, 2, 2, 77, 4, 4, 77, 7, 7, 77, 78, 79, 8, 78, 78, 8, 7, 8, 79, 11, 11, 79, 80, 80, 81, 11, 11, 81, 12, 81, 82, 12, 12, 82, 15, 82, 83, 15, 15, 83, 16, 83, 84, 16, 16, 84, 19, 85, 20, 84, 84, 20, 19, 85, 86, 20, 20, 86, 23, 86, 87, 23, 23, 87, 24, 24, 87, 27, 27, 87, 88, 88, 89, 27, 27, 89, 28, 28, 89, 31, 31, 89, 90, 90, 91, 31, 31, 91, 32, 32, 91, 35, 35, 91, 92, 92, 93, 35, 35, 93, 36, 36, 93, 39, 39, 93, 94, 94, 95, 39, 39, 95, 40, 96, 42, 95, 95, 42, 40, 96, 97, 42, 42, 97, 44, 44, 97, 47, 47, 97, 98, 98, 99, 47, 47, 99, 48, 48, 99, 51, 51, 99, 100, 100, 101, 51, 51, 101, 52, 52, 101, 55, 55, 101, 102, 102, 103, 55, 55, 103, 56, 56, 103, 59, 59, 103, 104, 104, 105, 59, 59, 105, 60, 60, 105, 63, 63, 105, 106, 107, 64, 106, 106, 64, 63, 64, 107, 67, 67, 107, 108, 108, 109, 67, 67, 109, 68, 68, 109, 71, 71, 109, 110, 71, 110, 73, 73, 110, 111, 112, 75, 111, 111, 75, 73, 113, 3, 112, 112, 3, 75, 5, 77, 1, 1, 77, 76, 78, 77, 6, 6, 77, 5, 9, 79, 6, 6, 79, 78, 79, 9, 80, 80, 9, 10, 81, 80, 13, 13, 80, 10, 81, 13, 82, 82, 13, 14, 83, 82, 17, 17, 82, 14, 83, 17, 84, 84, 17, 18, 85, 84, 21, 21, 84, 18, 86, 85, 22, 22, 85, 21, 87, 86, 25, 25, 86, 22, 88, 87, 26, 26, 87, 25, 89, 88, 29, 29, 88, 26, 90, 89, 30, 30, 89, 29, 33, 91, 30, 30, 91, 90, 92, 91, 34, 34, 91, 33, 93, 92, 37, 37, 92, 34, 93, 37, 94, 94, 37, 38, 95, 94, 41, 41, 94, 38, 43, 96, 41, 41, 96, 95, 45, 97, 43, 43, 97, 96, 98, 97, 46, 46, 97, 45, 49, 99, 46, 46, 99, 98, 99, 49, 100, 100, 49, 50, 53, 101, 50, 50, 101, 100, 102, 101, 54, 54, 101, 53, 57, 103, 54, 54, 103, 102, 104, 103, 58, 58, 103, 57, 61, 105, 58, 58, 105, 104, 105, 61, 106, 106, 61, 62, 65, 107, 62, 62, 107, 106, 108, 107, 66, 66, 107, 65, 69, 109, 66, 66, 109, 108, 109, 69, 110, 110, 69, 70, 110, 70, 111, 111, 70, 72, 74, 112, 72, 72, 112, 111, 0, 113, 74, 74, 113, 112, 1, 76, 0, 0, 76, 113]
  }
}